mnist__model/dense/kernel:0
(784, 128)
[[-5.35000116e-03 -6.33154288e-02 -3.73601653e-02  6.76736459e-02
   3.79438549e-02 -3.81249376e-02  4.55677435e-02 -2.56658494e-02
  -4.24737521e-02 -6.25009984e-02 -5.54153472e-02  9.14245099e-03
   7.18929544e-02  5.99798486e-02 -4.13549170e-02 -5.26506677e-02
   3.65011990e-02  2.11344436e-02  2.06517950e-02 -4.68964614e-02
  -1.57434270e-02  8.04551467e-02  4.89568785e-02 -6.55842200e-02
   1.89133435e-02  6.28827438e-02  6.36050180e-02  5.01378998e-02
  -1.60430372e-03 -2.73527093e-02  7.76298717e-02  2.65007019e-02
  -3.92123871e-02 -7.28306323e-02  4.10395861e-02 -5.62717468e-02
  -5.30248657e-02 -9.90395248e-03 -7.96415210e-02 -5.76131083e-02
  -4.63442542e-02  2.87826583e-02 -3.51622514e-02 -8.00521076e-02
  -6.30809739e-02  3.40219662e-02 -2.80903876e-02  2.49018744e-02
  -3.42017412e-03  7.65639767e-02  6.97450861e-02  3.94229814e-02
   2.05029845e-02  2.52172425e-02 -4.77215275e-02  3.10239494e-02
   3.43535617e-02  2.85304338e-02  3.62375602e-02 -1.15957260e-02
  -3.72451991e-02  2.78309658e-02  4.81370762e-02  5.60287610e-02
   1.42306313e-02  3.24007794e-02  5.05510941e-02 -4.81078699e-02
   1.46472156e-02  4.66661379e-02 -7.22204670e-02  7.40983337e-03
  -1.17677450e-02  6.54861405e-02  2.60710269e-02 -1.40490830e-02
   5.91497496e-02  5.97951636e-02 -3.45775746e-02 -3.33310291e-02
   5.33961728e-02  4.74809036e-02  1.78749710e-02 -6.26856834e-02
   4.29366753e-02  3.32249999e-02 -2.49152519e-02 -4.04822752e-02
   7.97925964e-02 -5.86898066e-02 -3.13963294e-02 -3.53867114e-02
  -3.39865610e-02  1.97140127e-03  5.02312183e-03  7.49466494e-02
   2.54691392e-03  7.72269741e-02 -1.88514180e-02  3.04257795e-02
   7.68465027e-02 -7.90904760e-02 -7.70397484e-03  6.24280944e-02
  -6.42574728e-02 -5.97320497e-04  2.43014395e-02  7.48854056e-02
   7.51480982e-02  6.21008053e-02  7.31146559e-02  3.90614569e-03
   7.26864263e-02 -6.25937879e-02  5.72943315e-02 -1.03089213e-02
  -2.67934054e-03  4.35796380e-03  3.81884649e-02  1.21194273e-02
  -1.25830621e-03  1.70227140e-03 -4.60550934e-03  4.11387905e-02
  -2.40182467e-02  7.15429857e-02 -6.63981885e-02  7.60120526e-02]
 [ 7.39985779e-02  4.76067141e-02  5.96849620e-03  6.06767610e-02
  -1.33940578e-02 -7.98641145e-03 -4.53455672e-02  6.52408227e-02
   3.47188264e-02 -2.63692401e-02 -6.01089448e-02  4.29001600e-02
   3.67488787e-02  5.49440309e-02 -4.50269878e-02 -2.84722447e-02
  -6.03247061e-02  1.82944387e-02  3.47807854e-02 -4.41628955e-02
  -4.27753143e-02 -7.75641054e-02  2.48626694e-02  6.51765689e-02
   7.24316016e-02 -2.97547579e-02  8.75870138e-03  7.49779269e-02
   2.54734755e-02 -5.89491129e-02  5.30002490e-02 -2.62534432e-02
   4.41919044e-02  1.23486072e-02 -4.89871614e-02  4.08393145e-02
   5.73717132e-02 -2.67702341e-03  4.49270085e-02 -6.53477311e-02
   3.59806269e-02  4.70938310e-02 -7.90536553e-02 -2.20691971e-02
  -4.15605009e-02 -5.56747913e-02 -7.66416490e-02  4.07195166e-02
  -2.38344148e-02 -4.50477973e-02 -6.14707693e-02  3.59613299e-02
   1.23047829e-03  1.71429217e-02 -3.34615037e-02  4.79329154e-02
   6.17047474e-02 -3.73152979e-02  5.31731620e-02 -6.32124916e-02
   5.18523380e-02  1.14894286e-02 -7.39546120e-02  1.64082944e-02
   2.77279317e-02  2.87569985e-02 -5.57619482e-02  7.31557086e-02
   1.28448829e-02 -2.28326544e-02  1.64704695e-02 -1.34464055e-02
   5.63090220e-02  7.16889873e-02 -2.34271325e-02  6.76390305e-02
  -2.78046280e-02  2.77114958e-02  3.99305150e-02 -5.80847859e-02
   2.53288597e-02 -7.59952664e-02  6.94799200e-02  7.95429125e-02
   2.14847326e-02 -5.64874858e-02  4.70916405e-02  5.26681170e-02
   2.00027674e-02 -1.29566044e-02  4.04220745e-02 -1.37284398e-03
  -4.64142114e-03  2.61310339e-02 -1.74872950e-02  1.26232281e-02
   6.44065961e-02  5.07974550e-02 -5.39045259e-02  2.00129747e-02
   1.64700225e-02  1.71246231e-02  7.37317875e-02 -6.84870705e-02
  -5.66232763e-02 -2.65568607e-02 -4.63157520e-02 -5.59383146e-02
   3.76911610e-02  8.43128562e-03  7.13243112e-02  1.81972608e-02
   5.42713180e-02  2.23392546e-02 -7.52762258e-02 -2.76050344e-02
   3.90364081e-02  8.09784010e-02 -8.81184638e-03  4.59331274e-03
  -4.39599976e-02 -5.85969053e-02 -3.24411392e-02 -2.91336887e-02
   2.75481790e-02 -3.55986953e-02 -1.99304596e-02 -5.39152399e-02]
 [ 6.39109388e-02 -5.33112139e-03 -4.23150249e-02  4.66006249e-03
  -1.76616535e-02 -5.47116287e-02 -5.58019802e-02  3.43167037e-02
   2.45663300e-02  2.71620750e-02 -2.16067396e-02  2.85166278e-02
   3.09858769e-02  2.20011100e-02 -3.58132757e-02 -3.37434188e-02
  -5.15128225e-02  3.56138349e-02 -7.95368850e-03  5.49398363e-04
   5.28220460e-02 -4.12656702e-02  6.75781295e-02  1.05073303e-02
  -2.74608880e-02 -7.89139718e-02  7.14791194e-02 -5.67340851e-02
  -3.21315713e-02 -7.70887658e-02 -4.48759571e-02 -3.77042331e-02
  -3.26790959e-02 -5.01275063e-05 -7.45701268e-02  3.54598686e-02
  -6.12455532e-02  5.13115153e-02  2.52541974e-02 -3.35841291e-02
   6.74177706e-03 -5.89427501e-02 -2.01743916e-02  3.74223590e-02
  -6.66142926e-02  2.75725648e-02  6.98205903e-02  2.82966867e-02
  -4.43676859e-03 -4.82072495e-02 -4.39362898e-02  3.37281451e-02
   1.22193247e-03 -2.73132324e-03 -2.53381431e-02 -1.72453746e-02
  -3.79728600e-02  5.88493794e-03 -2.66912617e-02 -3.89017165e-02
   7.03694448e-02  5.62413856e-02 -4.89529930e-02  4.17663157e-02
  -3.88149656e-02  4.26588804e-02 -4.21669893e-02  3.62738743e-02
   5.78236058e-02  2.21741647e-02 -7.42967427e-02 -7.11850971e-02
  -4.57292199e-02 -6.56595826e-02 -5.97849488e-03  2.70711854e-02
  -4.34491038e-03 -5.53528853e-02  7.59771392e-02  5.61721101e-02
  -2.03880593e-02  4.43047956e-02 -5.77856451e-02 -7.33231381e-02
   7.58899078e-02  6.93239197e-02 -1.94732621e-02  7.09284022e-02
  -1.65736973e-02 -2.48976946e-02  4.53587994e-02 -3.44538316e-02
  -6.37845546e-02  3.50462049e-02  7.74923936e-02 -5.10382578e-02
  -4.74154018e-02  3.84727567e-02  4.28987294e-02  4.92421612e-02
   2.67225131e-02  3.76732871e-02  6.65155575e-02  6.09175190e-02
   3.62671241e-02 -5.27008697e-02 -6.46885857e-02 -3.88686880e-02
  -7.95421824e-02  5.25520220e-02 -3.79334278e-02  4.82319072e-02
  -6.52998686e-02 -5.88779673e-02 -7.22582117e-02  7.48736486e-02
   8.19449127e-03 -7.18075782e-03 -1.70923322e-02 -3.12361494e-02
  -4.27025259e-02 -7.65620470e-02 -2.07066983e-02 -5.99521324e-02
  -3.93325724e-02  6.33168593e-02 -4.38613929e-02  4.10286188e-02]
 [-4.49735746e-02 -2.55154930e-02  1.83225349e-02  5.55835292e-02
  -1.89541653e-02  5.28671369e-02 -3.08399089e-02 -4.77890372e-02
   3.58173549e-02 -6.82955459e-02 -1.61764771e-03  4.40001860e-02
   5.33078238e-02  7.35530034e-02  2.78123021e-02 -2.66781896e-02
   6.39310256e-02  7.97109678e-02 -7.18498826e-02 -5.04863262e-02
   3.44884619e-02  2.80726552e-02  1.97775662e-04  7.62733892e-02
   7.52942339e-02 -2.12645493e-02 -3.57089452e-02  7.94329420e-02
  -6.36761859e-02 -8.85038823e-03  7.15671554e-02 -2.06761062e-03
   1.92234516e-02 -2.33088993e-02  6.01682067e-03  5.92411831e-02
   4.72699180e-02  6.25313744e-02 -1.26190707e-02  4.62166443e-02
  -3.14153582e-02 -3.43910977e-02  5.78481331e-02  3.97240594e-02
   6.17529973e-02  2.73755491e-02  7.46917054e-02  6.26686439e-02
  -5.01657352e-02  5.45890406e-02  2.67311186e-02  3.75847816e-02
   4.52073440e-02  7.66570345e-02 -2.13023573e-02 -4.56908531e-02
   3.04289684e-02 -3.41577232e-02 -1.18512437e-02  5.59028164e-02
   1.79505646e-02  8.02714899e-02  4.44359854e-02 -1.67707354e-02
  -4.14312035e-02 -7.41786435e-02 -7.86017552e-02  2.98396945e-02
   3.00944522e-02 -4.07547317e-02  4.83982190e-02 -2.40501165e-02
  -7.13859648e-02 -4.09084149e-02 -7.43756592e-02  6.08204380e-02
   2.57831588e-02 -4.61474881e-02 -7.05367029e-02  9.28357989e-03
   7.12755397e-02  3.09950188e-02  1.61302537e-02 -2.93488279e-02
   3.23395357e-02  4.43535373e-02 -5.41086569e-02  7.19655082e-02
  -1.31324083e-02 -4.27112281e-02  3.68169919e-02  3.13844010e-02
  -1.07154325e-02  8.61956179e-03 -7.86256045e-02  1.14782676e-02
   2.18824670e-02  6.83176294e-02  2.11707577e-02 -5.43532111e-02
  -5.50369546e-02 -2.21049152e-02  2.81150863e-02 -1.54041573e-02
   6.16138801e-02  2.28937417e-02  3.08753327e-02 -2.84341276e-02
  -7.95921683e-02 -1.96560659e-02  9.62091982e-03  6.04697391e-02
   4.84505966e-02 -4.90347743e-02  7.20962882e-03 -3.62819582e-02
  -7.24754035e-02 -7.01873899e-02 -4.85017709e-02 -6.32295087e-02
   6.69952706e-02  1.34942681e-03  7.01710060e-02 -5.52539527e-02
   5.19608483e-02 -2.65824646e-02  5.57148233e-02 -2.78168470e-02]
 [ 1.68967843e-02  7.63168558e-02 -7.36299977e-02  6.49115220e-02
   1.80388466e-02 -2.43596248e-02 -7.37832934e-02  3.33422050e-02
   6.09308407e-02  5.46574220e-02 -5.73056489e-02 -3.17459255e-02
  -2.04300620e-02 -5.65546267e-02 -2.60167234e-02  2.61433497e-02
  -1.78163499e-03  4.81465459e-03 -4.39304113e-02 -3.59863117e-02
   1.66972503e-02 -4.50835153e-02 -2.71555558e-02  4.92503420e-02
   4.36421111e-02  7.18791857e-02 -3.44301984e-02 -8.10858235e-02
  -1.32119283e-02  4.05339450e-02 -5.91560155e-02 -3.43313627e-02
   1.24853849e-02  4.34398949e-02  1.50710121e-02  5.37407473e-02
  -1.92199647e-03 -8.06766748e-03  7.46365413e-02  6.05767593e-02
  -3.54952179e-02  5.43873087e-02  3.77399474e-02  3.68470997e-02
   4.31143939e-02 -7.32744038e-02 -3.41686606e-03 -7.98779875e-02
   1.01393387e-02  6.43746033e-02 -1.12943053e-02 -2.18235403e-02
  -2.07598768e-02  9.88046080e-03 -1.47285163e-02 -5.39499670e-02
  -2.42456831e-02 -2.69161873e-02  3.72787863e-02 -2.08004862e-02
   4.57618311e-02 -6.82738647e-02 -6.21479750e-02 -5.93043379e-02
  -4.88629341e-02  7.21706375e-02  3.90660539e-02 -6.07327037e-02
   4.18474451e-02 -7.04197437e-02  4.96066287e-02  2.18860433e-02
   1.76267251e-02 -1.52587146e-03  4.63572517e-02 -1.42107680e-02
  -6.86442330e-02  1.49564371e-02  7.89058954e-03 -3.32089476e-02
  -2.04408728e-02 -4.39286232e-04  1.74648464e-02  4.71988395e-02
  -2.53855214e-02 -7.18359649e-03 -1.20514706e-02 -3.91843915e-03
  -3.76846604e-02 -6.08687699e-02  5.17265722e-02 -7.12508261e-02
   1.39607415e-02  4.60711941e-02  6.14795312e-02  1.82725862e-02
  -2.21025534e-02 -2.56316774e-02 -6.07450828e-02  5.11931404e-02
  -8.29785317e-03  2.26128846e-03  1.47343352e-02  8.50210339e-03
  -7.67492801e-02 -3.77502553e-02  2.05910206e-03 -2.96286158e-02
  -9.98952985e-03 -5.12699708e-02  6.28019348e-02  3.71721163e-02
   3.67160439e-02 -1.35881156e-02  2.78253928e-02 -5.50446361e-02
  -5.46680987e-02 -6.71124309e-02  1.04162693e-02  6.26974180e-02
  -7.35666081e-02 -1.18836015e-02 -8.77249241e-03 -7.34749809e-02
  -5.31676002e-02  2.53608078e-02 -6.28616363e-02 -6.72384948e-02]
 [ 1.57208219e-02  7.79941604e-02  7.49775991e-02 -6.10525236e-02
   7.77635947e-02 -3.78240123e-02 -3.37903909e-02  4.00545672e-02
   7.57431239e-03  1.03124976e-02  7.81479403e-02  5.84559813e-02
  -4.48931679e-02 -5.20198122e-02  4.56443056e-02  6.69018403e-02
  -7.07083941e-03 -4.50808443e-02 -3.40899788e-02 -7.10219964e-02
  -1.41303986e-02 -2.35597342e-02 -1.45910978e-02  1.13120899e-02
  -3.51566821e-02  8.10498968e-02  2.22549215e-02  3.97216529e-03
  -3.60851884e-02 -5.62491007e-02 -7.09969699e-02 -7.52879232e-02
   5.50134555e-02 -6.61840141e-02 -1.52534097e-02  7.31054023e-02
   5.98419383e-02 -1.51451752e-02 -5.12584448e-02  1.27672032e-02
  -2.77606510e-02 -6.64269477e-02 -3.67828570e-02  6.04088530e-02
  -3.00415084e-02 -2.60849111e-02 -2.14028358e-03 -3.06332968e-02
  -9.36222821e-03 -4.22916226e-02 -2.30419338e-02  3.73114720e-02
   4.30880487e-03 -2.83225439e-02  3.47494334e-02 -9.60297883e-04
   7.61972293e-02 -8.09473768e-02 -1.81017816e-03 -4.91399728e-02
  -7.61125684e-02 -5.36711514e-03  7.36091062e-02  1.64627135e-02
   2.33427361e-02  5.54537550e-02  2.37885490e-02 -7.92217031e-02
  -4.60284613e-02  4.19647470e-02  7.78567567e-02  2.86928192e-02
   3.17388326e-02  3.23582962e-02 -5.46402112e-02  5.45692220e-02
  -7.23182634e-02 -1.43186748e-03 -2.69424096e-02  7.84733668e-02
   3.24474275e-02  7.54431412e-02  1.41839683e-02 -9.10754502e-03
  -2.15710811e-02  7.16437399e-03  7.38969818e-02  5.46012819e-03
  -6.66264743e-02  2.10807025e-02  3.23489308e-02  7.48182163e-02
   4.19977307e-03  3.04120034e-03 -3.49744000e-02  4.49899361e-02
   3.46926600e-02  4.35027257e-02  2.85542160e-02  7.87624195e-02
  -1.57655701e-02  3.73158231e-02 -5.08617759e-02 -1.15907416e-02
  -1.73718631e-02  4.42746356e-02  1.04788840e-02  2.46920511e-02
  -7.24782497e-02 -1.69475228e-02 -5.69431111e-02  2.99897790e-02
  -3.99213471e-02  2.54337490e-03  3.85747030e-02 -5.57526648e-02
   2.31017619e-02  4.62774560e-02  6.97186962e-02  8.27510655e-03
  -5.42829372e-02 -3.37993242e-02 -5.52626327e-02 -1.18965581e-02
   7.86367431e-02 -1.40146911e-03 -1.94366165e-02 -4.02742922e-02]
 [-7.91333690e-02  2.26203576e-02  3.64183858e-02  1.00778267e-02
   7.97082111e-02 -4.78994995e-02  6.06580898e-02  2.58361846e-02
  -5.27701378e-02 -3.18222940e-02  5.60964122e-02 -7.23383725e-02
   3.03978547e-02 -5.50573319e-03 -8.14757496e-03  5.79185784e-03
   1.16235763e-02  8.04671124e-02 -3.29484046e-03  1.97275802e-02
   6.74130246e-02 -2.63297521e-02  1.90030485e-02  7.46409521e-02
   6.43832907e-02 -1.11599267e-03  4.09376696e-02 -3.36203314e-02
   2.45081261e-02  1.45432353e-02  7.98017904e-02 -3.62281501e-03
   4.99374792e-02  6.58832863e-02 -7.83930942e-02  7.38010183e-02
   6.63861558e-02 -7.20220730e-02  2.77054384e-02  2.90070847e-02
   6.83915541e-02  3.83963659e-02 -3.18396389e-02  4.68684360e-02
   5.75144812e-02  4.57621738e-02  4.12572548e-02 -1.91510282e-02
  -6.76801801e-03 -6.07841462e-03  1.22421458e-02  3.20541039e-02
  -2.41086148e-02 -5.22307754e-02 -1.35061592e-02  1.53987408e-02
  -1.55222714e-02  6.87993541e-02 -1.68146491e-02  5.49761578e-02
  -2.82385796e-02 -2.91257799e-02  6.47539869e-02  7.86278471e-02
  -3.03237699e-02 -6.62145317e-02  9.49870050e-03 -7.48264790e-02
  -3.30076925e-02 -7.12024420e-03 -2.66021900e-02 -4.67864648e-02
   2.41791606e-02  6.50151297e-02  7.91861936e-02  2.54656971e-02
   6.68457076e-02 -7.86522701e-02  4.93564680e-02 -2.77631469e-02
   6.22725561e-02 -6.02735542e-02 -4.96514328e-02 -5.52058220e-03
   6.39369264e-02 -5.92913032e-02 -2.32761353e-03 -5.71671128e-03
  -3.26840468e-02 -3.00038569e-02  3.75129953e-02 -1.66939199e-02
  -5.10469824e-02  4.30571884e-02  9.73383337e-03 -6.87105209e-03
  -5.19530028e-02  5.90148494e-02 -3.13351639e-02 -9.61672515e-03
   6.27765730e-02 -5.51869273e-02 -2.81005427e-02  4.20250297e-02
  -8.03730264e-02 -1.88767724e-02  1.14710927e-02 -1.54351145e-02
   8.04388523e-03  7.99191669e-02  7.46794418e-02 -5.25329188e-02
  -7.76141733e-02 -1.36565417e-03  3.31027955e-02  1.44334659e-02
  -2.26522274e-02  6.25500008e-02 -3.00510600e-02 -5.67711592e-02
   5.91450557e-02 -4.96342592e-02  8.01033154e-02 -2.89835855e-02
  -5.52947372e-02 -5.59931956e-02 -2.22100392e-02 -5.62163591e-02]
 [ 5.21496162e-02 -4.93693054e-02  2.16610432e-02 -3.38148139e-02
  -9.50390100e-03  6.74034730e-02 -5.84072173e-02 -7.53301978e-02
  -7.61671066e-02 -4.69357744e-02  4.48264554e-02  1.38107538e-02
  -5.59768379e-02 -5.85936382e-02  7.05642775e-02  5.44545129e-02
  -5.37467226e-02 -7.00491443e-02  4.14382219e-02 -6.57376498e-02
  -7.08471984e-03 -2.39114985e-02  2.08252594e-02  6.85761794e-02
   4.23755348e-02  1.90413967e-02 -2.32446156e-02 -5.56394383e-02
  -1.92989446e-02 -4.05263081e-02 -3.02862152e-02 -7.39224851e-02
  -5.28088361e-02  5.86802885e-02  7.35770836e-02  3.12824473e-02
   7.16563687e-02  3.78605053e-02 -2.07698159e-02  2.21955553e-02
  -3.24928500e-02 -5.44819087e-02 -5.98136336e-02 -2.42810138e-02
  -3.29236314e-02 -5.94224371e-02  1.99396014e-02  2.55397037e-02
   6.66262209e-03 -3.40507627e-02 -4.95079048e-02 -6.62275106e-02
  -6.64022267e-02  1.55926496e-03 -7.30675459e-02 -4.48866300e-02
  -3.64576653e-02 -2.67208517e-02  7.00511038e-04  6.23200759e-02
  -6.11656681e-02 -5.56958318e-02 -2.32405961e-04  5.09356335e-02
  -6.58742189e-02 -3.51264551e-02  6.24720827e-02  7.08961487e-03
   1.36827156e-02 -3.53408605e-02  4.96321172e-03  7.73549080e-03
   6.89413920e-02 -5.95901906e-03  5.34876809e-02 -1.78922191e-02
  -6.29289746e-02  5.09707555e-02  2.05300823e-02  6.64183572e-02
  -7.70545378e-02  4.58581522e-02  5.15687987e-02 -5.14315441e-02
  -3.57678495e-02 -3.51621732e-02 -4.88774180e-02 -2.84184627e-02
   3.48290503e-02  7.81242028e-02  5.40965572e-02  6.85907826e-02
   5.21053597e-02 -6.02072030e-02 -4.11205366e-02  3.01688686e-02
  -7.37424120e-02  6.04918972e-02  2.96704024e-02  6.72541782e-02
   7.08182082e-02  3.49588469e-02  2.86836103e-02 -6.47836924e-03
   1.85058266e-02 -1.91784315e-02  2.89343894e-02 -1.71115249e-03
   1.78726465e-02 -3.66561152e-02 -1.95887312e-02 -4.34085280e-02
   8.08904693e-02  5.97576723e-02  7.79019669e-02  5.16659990e-02
   4.84220162e-02 -6.98157102e-02 -2.98172012e-02  7.24023059e-02
  -7.88258091e-02 -7.55861625e-02 -3.94865125e-03  3.53503525e-02
   4.55313548e-02  3.07261050e-02 -7.97835961e-02  2.56560743e-04]
 [-4.38516624e-02 -3.18657272e-02  7.65902773e-02  5.38881645e-02
  -4.60369103e-02 -1.91714689e-02 -6.15118630e-02 -4.96191010e-02
  -1.29016787e-02  6.05549291e-02  1.44223496e-02 -2.73534060e-02
   3.17495465e-02 -2.57298015e-02 -9.09122825e-03  7.19964504e-04
   6.95704296e-02  1.45853683e-02 -6.77117258e-02  2.72969753e-02
   5.84869832e-03  1.36938691e-03 -6.79529682e-02 -6.28480241e-02
   6.22406527e-02  1.16467997e-02  4.42418084e-02 -2.86658183e-02
  -3.51250619e-02 -1.33810416e-02  5.69869652e-02  5.84464595e-02
  -6.04932010e-02 -6.49085939e-02 -6.94863051e-02  1.20662302e-02
   6.54936805e-02 -8.05526450e-02  6.27088323e-02 -3.69218215e-02
  -2.62466371e-02 -4.58198972e-02  1.30039230e-02 -7.79616386e-02
   2.98130810e-02  1.87530443e-02  1.80565789e-02 -6.57523274e-02
  -4.51557823e-02 -7.88222328e-02  4.81873825e-02  2.76236609e-02
   5.33314869e-02  5.22700474e-02 -3.12221497e-02  7.94883072e-03
   7.62205943e-02 -4.00304161e-02  1.74456015e-02 -7.16335326e-02
   3.22329625e-02 -1.28720775e-02 -2.64925621e-02  1.84238479e-02
   2.33830810e-02  3.86229381e-02 -3.48537266e-02  2.57165730e-02
   1.43899024e-02  6.38204813e-03 -1.70242786e-02 -8.07036981e-02
   5.64843044e-02 -5.43647930e-02 -7.84545764e-02  1.71099603e-03
   3.32060829e-02  1.22375861e-02 -6.76799491e-02 -6.64939135e-02
  -3.52154709e-02 -5.15136532e-02  3.15898880e-02 -4.36598808e-03
   3.06456536e-02 -6.24259077e-02 -7.18742162e-02 -1.27200559e-02
  -5.38159534e-02  7.70062283e-02 -3.68338525e-02  5.90299815e-03
   3.15004066e-02 -7.00500682e-02  4.53632250e-02 -7.18624964e-02
  -6.68409169e-02  3.28758657e-02 -1.43875629e-02 -3.76420990e-02
   1.72145069e-02  5.84766343e-02  3.40536982e-02 -6.86117485e-02
  -1.61743015e-02 -3.03275138e-03  2.96956599e-02  1.15315989e-02
   2.66814232e-02 -3.07144783e-02 -1.56659409e-02  6.57898262e-02
   5.76640442e-02 -4.73894924e-03 -7.07678497e-02  4.40603420e-02
  -6.80608153e-02 -6.16915934e-02  5.29825762e-02 -4.69771773e-02
   2.54190192e-02  2.86087915e-02  5.41408584e-02  2.78580189e-02
  -3.48561443e-02  7.67915770e-02 -3.90926041e-02  2.77272910e-02]
 [ 2.50889286e-02 -2.65261121e-02 -3.40401456e-02  7.93665871e-02
   4.99460325e-02  6.59465417e-02 -2.25876942e-02  1.13826618e-02
   6.34005591e-02 -5.05678952e-02 -3.46152075e-02 -1.04543418e-02
  -2.89782137e-03 -4.94915247e-03  6.99437484e-02  1.73228979e-02
   4.70430478e-02  4.85975370e-02  4.01115566e-02 -3.93412374e-02
   1.21424571e-02 -6.30448461e-02  4.39068899e-02  4.97767851e-02
  -1.27255917e-05  4.80506793e-02  7.23174959e-03  4.92986962e-02
   7.48963878e-02  5.79824522e-02 -5.50290868e-02  3.61791328e-02
  -7.44919404e-02  1.17304996e-02 -2.77626514e-03 -3.56129482e-02
  -6.51948005e-02  6.97537884e-02 -6.20459765e-03  2.43369639e-02
   6.95837066e-02 -6.75696805e-02 -5.37734888e-02  2.89840698e-02
   1.87663138e-02  1.39179900e-02  2.25291774e-02 -4.95958365e-02
  -1.41433552e-02  4.91486490e-03  2.95121968e-02 -6.03504442e-02
   6.63569942e-02  6.52056113e-02  6.23691902e-02 -7.72706643e-02
   8.90260190e-03  5.99751249e-02  7.59434924e-02  4.22937721e-02
   4.18301746e-02 -1.27527788e-02 -1.97632574e-02 -4.81000170e-02
   3.42415944e-02  2.39440650e-02 -7.97042698e-02 -1.12529397e-02
  -5.75472042e-02  2.82622650e-02  1.50751173e-02  1.34293661e-02
   3.31671387e-02 -3.20975743e-02  2.42206007e-02  2.35704109e-02
   4.57391664e-02 -6.32432997e-02 -5.94732985e-02  2.98282802e-02
   2.62824148e-02  5.66042438e-02 -2.27396935e-03 -1.12574622e-02
   2.45668739e-02  6.87423572e-02 -5.51788025e-02 -2.60645673e-02
  -7.07130656e-02 -7.22875744e-02 -7.87236094e-02 -3.75660770e-02
   1.92953721e-02 -6.60963356e-02 -2.94675678e-02 -4.33405526e-02
  -7.88837522e-02 -3.10620070e-02  6.06124625e-02 -7.75490701e-03
  -3.68502140e-02  7.71964565e-02 -1.62056834e-03 -6.28561452e-02
  -4.37466949e-02  2.67705917e-02 -1.83976293e-02 -7.32134283e-02
   8.33889097e-03  3.87230888e-02 -2.41244696e-02  6.46068677e-02
   3.62646505e-02 -2.16613524e-02 -4.45029773e-02 -6.71684742e-02
  -3.26471291e-02  6.93387911e-02  1.38654858e-02 -6.35541603e-02
   6.87558725e-02  2.90557593e-02 -4.15992551e-02 -7.49344826e-02
   5.00240698e-02 -1.79519728e-02 -7.59490579e-03  5.92959002e-02]
 [ 7.03519657e-02 -5.20862192e-02 -1.14911050e-02  5.03479019e-02
  -1.30484998e-02  1.38661414e-02 -7.64268637e-03 -3.57091166e-02
   4.48306724e-02  9.02814418e-03 -9.72621143e-04  4.91911918e-03
  -7.65796080e-02  4.32005450e-02 -4.31151837e-02  4.96538952e-02
  -7.47212395e-02 -7.22152442e-02 -2.20939517e-04  7.74099901e-02
   2.60522068e-02  1.88432410e-02  5.98803535e-02 -2.07751952e-02
  -3.90634425e-02  1.95440948e-02  3.69141623e-02  2.54691988e-02
   3.12858522e-02 -8.82012397e-03  6.81531206e-02 -3.30401808e-02
  -6.10361248e-02 -3.85127068e-02  2.93851867e-02  4.44982573e-02
  -2.38332376e-02  3.94996554e-02  1.95034295e-02  1.76587477e-02
  -9.97308642e-03 -3.95058654e-02 -5.01291864e-02 -1.17139816e-02
  -5.54266423e-02 -5.63400239e-03 -5.80646954e-02 -4.58712131e-03
   7.39868060e-02  6.44743815e-02  7.93435797e-02  4.29895073e-02
   7.70344511e-02  3.69076654e-02  1.78201497e-02 -3.46133895e-02
  -3.45475264e-02  1.61764696e-02  6.12723008e-02 -2.92900391e-02
   1.74000189e-02  3.99664044e-04 -1.81917101e-02 -6.46272227e-02
   1.44330636e-02  2.21958607e-02 -3.75689976e-02  6.47881851e-02
  -5.80160618e-02 -6.10395819e-02 -5.91123849e-03 -1.62933320e-02
  -2.74628028e-02  4.84706536e-02 -6.64529949e-02  7.50978515e-02
  -6.87212572e-02  7.30010197e-02  5.34696132e-03  2.64596194e-03
  -2.77388766e-02  7.90667608e-02 -2.80425474e-02 -6.84551448e-02
  -7.72549212e-02 -5.29480353e-02 -7.72931352e-02 -3.78774442e-02
  -5.77997230e-02  7.31458440e-02 -6.55020773e-03  4.45216820e-02
   2.84236297e-02 -5.98901510e-03 -7.49995708e-02  6.83820471e-02
   3.86444181e-02  1.75391212e-02  5.36496118e-02  5.28620183e-03
   3.70738059e-02  7.59441182e-02  2.16717944e-02  7.88441226e-02
  -2.72338390e-02 -5.11376970e-02  3.81275862e-02  4.38596904e-02
  -1.32069588e-02 -4.44565080e-02  3.13552544e-02 -8.06382000e-02
   6.28322288e-02 -1.22317672e-02 -3.70352045e-02 -6.21228181e-02
  -2.74289623e-02 -2.47072503e-02 -4.97138947e-02 -1.05324537e-02
   6.59353212e-02 -4.38719690e-02  3.35666314e-02 -2.29524076e-03
  -6.96667433e-02 -1.42687559e-03  6.60446212e-02  4.68314961e-02]
 [ 6.20397553e-02 -2.87136026e-02  6.25545904e-02  4.52941731e-02
   6.76789507e-02  2.36114860e-03 -4.04013060e-02  2.59949267e-02
   2.29326114e-02  4.72968146e-02 -4.94587645e-02  1.39093995e-02
  -8.19116086e-03  6.74019381e-02 -5.23280874e-02 -7.68723115e-02
  -9.33272392e-03  1.06192231e-02  9.37870890e-03  6.30484298e-02
  -6.89318180e-02 -6.20841980e-02 -2.92427391e-02 -7.04057962e-02
   3.40045244e-02 -2.91738361e-02 -6.27089813e-02  7.37826750e-02
   6.27544597e-02 -1.30717978e-02  2.58932263e-03 -2.82567367e-02
  -4.23957817e-02 -5.94461858e-02  4.53521237e-02 -5.99151105e-03
  -7.83300921e-02 -1.93793364e-02 -2.71606818e-02  7.42741153e-02
  -5.03454655e-02  6.76853433e-02  7.26017281e-02  4.54954803e-04
   3.89803275e-02  4.50713560e-02 -8.01150352e-02 -7.05616474e-02
   7.60002956e-02 -5.31194471e-02 -3.59365158e-02  2.74583325e-02
  -2.91399360e-02  1.82416216e-02  6.33442625e-02  4.97623757e-02
   2.06313133e-02 -2.37847939e-02  1.09787211e-02 -2.88546570e-02
   4.53637615e-02  8.10755119e-02  3.17842960e-02  2.95089707e-02
   2.40618736e-03  4.48509827e-02  7.69132897e-02  7.23039880e-02
   7.03848973e-02 -2.94071138e-02  4.78755906e-02 -2.80450583e-02
   3.09250951e-02 -2.93344259e-04  3.75220850e-02 -7.39720166e-02
   7.10692331e-02  7.51742497e-02  7.22317621e-02  1.25918835e-02
  -7.35830814e-02 -7.57871568e-03  9.78409499e-03 -2.91353129e-02
  -3.77984270e-02 -1.03053972e-02 -7.87044838e-02  5.12406006e-02
   6.89740255e-02  8.09044912e-02 -5.52078299e-02  6.76020756e-02
   3.51862609e-03 -1.28760412e-02  4.97615859e-02  2.87719667e-02
  -2.24845260e-02  2.49562338e-02  1.02943406e-02  5.75590208e-02
  -1.00331381e-02 -2.25082040e-03  6.77348748e-02 -3.41759212e-02
   7.28643313e-02 -1.21880248e-02  4.52266559e-02 -7.92610422e-02
   4.42559049e-02  4.99470606e-02  2.25480646e-03 -4.22569327e-02
  -7.30267391e-02  2.72883326e-02 -4.35280055e-03 -4.29310054e-02
   4.08281386e-02  1.06877089e-03 -4.59253304e-02 -2.43178345e-02
  -5.20240888e-02  5.92947230e-02 -1.77259669e-02  7.76318833e-02
   6.30575418e-03 -2.86785252e-02 -1.41193792e-02 -8.05902481e-03]
 [ 9.97879282e-02  5.65041082e-05  1.09037630e-01 -2.24042628e-02
   5.91847897e-02  7.76994005e-02  5.50147854e-02 -3.64662334e-02
   3.08519285e-02  5.77353761e-02  4.39692661e-02  5.24996221e-02
  -2.40160525e-03  4.44614999e-02 -7.04666926e-03  5.15414514e-02
  -5.73995747e-02 -4.35447320e-02  9.61687937e-02  4.00832072e-02
  -6.17167503e-02 -3.90793383e-02  1.38211519e-01 -4.07718047e-02
   1.00536253e-02  7.38928989e-02 -6.89319000e-02  6.35518357e-02
  -3.37350965e-02 -1.87377147e-02 -6.51339516e-02 -2.08281111e-02
   1.98162533e-02 -9.95593965e-02 -3.95775735e-02 -2.97564846e-02
   3.18383574e-02  2.76030581e-02 -3.30701955e-02  4.18687891e-03
  -4.52035293e-02 -9.39821005e-02  7.97212347e-02  6.29428104e-02
   1.51244625e-02 -6.90744445e-02 -6.39360547e-02  7.70415440e-02
   7.25859776e-02 -4.77037951e-02  2.45896894e-02 -3.40586305e-02
   3.15406709e-03  8.48756582e-02 -2.89852805e-02 -1.85763575e-02
  -3.47962976e-02 -3.08136586e-02  6.80549070e-02 -3.59370895e-02
   3.53345014e-02 -3.93446609e-02 -4.61979285e-02  4.63643447e-02
   7.72675052e-02 -3.50761451e-02  1.78054406e-03 -4.98769172e-02
  -1.61207858e-02  5.81045495e-03  7.36244470e-02 -1.03771634e-01
  -5.92644177e-02 -7.52513185e-02  1.05655966e-02  4.30573449e-02
   1.03007637e-01 -6.83384165e-02 -5.40494397e-02  5.20951077e-02
  -6.84905425e-02  4.23466489e-02  1.49268657e-02 -1.61097478e-02
  -1.46815330e-01  7.54318610e-02 -8.18349645e-02 -2.66886633e-02
  -7.67365918e-02 -4.70961863e-03 -3.73665169e-02  6.72191754e-02
   9.55616832e-02 -5.62428534e-02 -5.89748025e-02  4.80502564e-03
  -4.35464270e-02  7.28421193e-03  3.25153209e-02 -5.42643256e-02
   7.45750442e-02 -6.29442371e-03 -4.97615971e-02 -1.06937058e-01
   6.35499656e-02  5.63172884e-02 -1.29428878e-01 -6.09949604e-02
   8.24558288e-02  1.82376094e-02 -7.38201141e-02 -1.01773525e-02
  -1.98098831e-02 -7.06588030e-02 -2.33296733e-02 -1.00231051e-01
   5.19978330e-02  1.37653574e-02 -5.73441312e-02 -1.05226807e-01
  -3.23859304e-02  9.64905098e-02 -8.24660435e-02  7.75133222e-02
   5.77212423e-02  7.07928613e-02 -2.70425528e-02 -1.00587960e-02]
 [-7.49753714e-02 -5.67865558e-03  2.68542822e-02  7.22355470e-02
   8.02651048e-02  1.89062152e-02  7.05669215e-03  2.27146894e-02
  -7.71298409e-02 -4.42214757e-02 -6.99655488e-02 -4.33446616e-02
  -7.94230178e-02  2.02321243e-02  2.00381819e-02  8.28767419e-02
   8.21899697e-02 -2.38098279e-02  6.68788776e-02 -7.11102709e-02
  -1.52852237e-02  1.90486070e-02  4.92405742e-02 -3.80878337e-02
   7.77807310e-02 -3.72528173e-02 -2.52167927e-03 -6.87778443e-02
   7.00093061e-02  6.48135543e-02  1.29620219e-02 -4.36572731e-02
   6.72414228e-02  1.00508789e-02 -1.44308507e-01 -4.54750732e-02
   1.21507965e-01  1.75043754e-02 -7.64720291e-02  4.71802987e-02
   7.43929893e-02  2.37173047e-02  4.85019013e-02 -4.53802086e-02
  -6.24799393e-02  2.15788968e-02  3.38183320e-03 -2.50455923e-02
  -5.92440590e-02 -1.51385050e-02 -1.45358313e-02  8.45081508e-02
  -5.29928319e-02  5.33292256e-02 -1.90983596e-03  8.91844779e-02
   3.31450216e-02  1.40905483e-02 -1.06138166e-03  7.04925582e-02
  -3.29259001e-02  5.21057025e-02 -5.24116568e-02 -8.82209390e-02
   2.62937993e-02 -9.61315352e-03  1.50213786e-03  6.85283765e-02
   7.81063810e-02  6.68699795e-05  8.66601616e-02 -1.09627903e-01
  -1.48671288e-02 -1.13708396e-02  6.86417967e-02 -4.90739308e-02
   4.61203195e-02  5.78504726e-02  2.30808519e-02  9.08610001e-02
  -4.05138582e-02  1.91551552e-03  6.07899800e-02 -2.66857054e-02
  -3.78438309e-02  6.33840188e-02 -8.00085962e-02 -5.14129885e-02
  -8.54628161e-02 -5.10394722e-02  7.02679083e-02  4.67539951e-02
   3.05629075e-02 -4.60921181e-03 -3.00337486e-02  9.72888246e-02
   4.72226106e-02 -2.05697306e-03 -1.02737164e-02 -1.32624712e-02
   6.45350069e-02 -2.76019927e-02 -4.54140566e-02 -1.14988677e-01
  -5.91463521e-02 -8.91004689e-03 -2.35368926e-02  3.88895981e-02
  -4.69453447e-02  1.76073443e-02 -5.16000427e-02 -2.38727243e-03
   4.30555418e-02  4.13778126e-02 -1.58436652e-02  6.42678468e-03
   5.51532805e-02  4.35296185e-02 -3.24201956e-02 -9.25491750e-02
  -9.80181526e-03  4.60327007e-02 -4.42915112e-02  3.49674821e-02
  -1.87297426e-02  4.99239042e-02 -6.94973990e-02  1.35352521e-03]
 [-9.46226530e-03  4.60056476e-02 -6.64684325e-02  1.73873231e-02
  -2.53914986e-02  4.20639776e-02 -7.43035302e-02 -7.15935230e-02
   1.68978404e-02 -7.45309889e-03 -3.53177413e-02  1.85376815e-02
   3.42590734e-02 -6.34874329e-02 -3.44430096e-02 -6.11780398e-02
  -1.47536797e-02  9.01614800e-02  3.93346995e-02 -3.49158049e-02
  -7.49849528e-02 -5.17609678e-02 -1.15774490e-01  1.51202837e-02
  -8.12264800e-04  4.59874608e-02  6.94093406e-02 -4.58002836e-03
   9.58385319e-03 -2.01074723e-02 -5.74461222e-02  1.08627332e-02
  -1.33316149e-03  6.18491285e-02 -1.94194168e-02  4.61214781e-02
  -7.91317299e-02  1.65420435e-02  5.82591444e-03  7.55316541e-02
  -5.86176887e-02  6.79522827e-02 -6.12126067e-02  2.46532932e-02
  -1.56897455e-02  4.46762107e-02 -4.59052389e-03  2.82620508e-02
   6.17285743e-02  4.55211196e-03 -7.33550265e-02  2.31616184e-04
  -7.01329783e-02 -6.88199252e-02  8.19092318e-02 -4.40805405e-02
  -5.92467468e-03 -5.93928844e-02 -3.52839231e-02  7.46807009e-02
  -4.37374264e-02  5.80786243e-02  3.42115089e-02  2.38080919e-02
   3.92057896e-02 -2.45050248e-02 -6.04491718e-02  7.79221579e-02
   4.54190467e-03  1.27038509e-02 -1.19271409e-02  4.24600542e-02
   5.66908866e-02  1.03099952e-02 -6.99830428e-02  2.34413184e-02
   7.29264766e-02 -1.53400302e-02 -1.30972068e-03 -7.13678673e-02
   7.92629719e-02 -7.80834779e-02 -6.26932606e-02  7.05355033e-02
   4.42385338e-02  4.84400317e-02 -3.09869293e-02  4.66122478e-03
   3.37843262e-02  5.53796776e-02  4.31625023e-02  2.05486140e-04
   7.98993278e-03  2.52703261e-02  7.66181806e-03  3.48277241e-02
  -7.10858032e-02  5.51982736e-03  4.15691249e-02  6.26411587e-02
   3.25117558e-02 -4.80184506e-04 -2.71061528e-02 -1.81962166e-03
   6.16229065e-02 -1.48875620e-02  1.01353928e-01  3.51660736e-02
  -2.62697507e-02  6.01349995e-02 -2.20377073e-02 -8.62764753e-03
  -3.04701813e-02 -2.82809697e-02 -1.85555033e-02  5.59699722e-02
  -4.57241200e-02  3.31818834e-02 -6.99019954e-02 -4.91490550e-02
  -7.17368126e-02 -1.07587809e-02  7.47741237e-02  5.01860008e-02
   2.63155587e-02 -5.27403206e-02  3.10765841e-04  1.21737001e-02]
 [ 6.83838502e-02  3.23178954e-02  8.20609257e-02  5.03991023e-02
  -5.84063195e-02  1.46945333e-02 -6.96261376e-02  4.71234322e-04
  -7.93037266e-02  7.86356255e-02  5.17378971e-02  6.58583865e-02
   3.19858566e-02 -4.19622995e-02  6.95999712e-02 -4.44760174e-02
  -1.66279990e-02 -6.49419129e-02 -5.36096357e-02 -8.03681016e-02
  -3.85266691e-02  4.19423506e-02  6.31741881e-02 -7.09735602e-02
  -1.95547175e-02  6.97357208e-02  1.64088272e-02  5.33639565e-02
  -1.77935197e-03 -3.49458270e-02 -1.80195644e-02  7.71317109e-02
  -1.48793282e-02  3.55359875e-02  1.56623051e-02 -4.54218797e-02
  -6.95027411e-02  4.12426852e-02  2.88803205e-02 -5.49148209e-02
  -2.64736246e-02  2.98177004e-02 -6.87369183e-02  5.77416979e-02
   6.13076314e-02 -4.27221917e-02  4.51112650e-02  3.73628078e-04
   8.38938355e-03 -2.78406832e-02  4.12350148e-02  7.79765770e-02
   4.79804073e-03  4.53158244e-02  5.91363609e-02 -4.34634537e-02
  -4.20428142e-02 -7.55379871e-02  5.83773963e-02 -1.30480677e-02
   6.77293241e-02 -1.92741156e-02  1.21552711e-02  6.67914301e-02
   2.62528434e-02  7.67915975e-03  2.43824404e-02 -5.47539964e-02
   6.31581694e-02  1.61694586e-02  4.05014493e-02 -1.24798780e-02
  -2.81987768e-02  5.79692759e-02  6.73779026e-02  5.84789813e-02
   1.67332217e-02  9.42223519e-03 -6.85218200e-02  2.82832608e-02
   7.71672800e-02  2.66603660e-02  7.49716684e-02  2.94555444e-02
  -2.13024225e-02 -6.10387288e-02 -5.48246317e-02  5.62423244e-02
  -4.46838140e-02  3.42073217e-02 -4.17200327e-02 -3.99296917e-02
   7.37532750e-02  8.59655663e-02  4.74610887e-02  1.02489069e-03
  -5.39507754e-02 -4.57688086e-02  7.67331421e-02 -6.32488951e-02
  -8.55165254e-03 -1.74465831e-02 -3.20149772e-02 -4.11502086e-02
  -2.35770699e-02  3.72526757e-02 -6.70785680e-02 -5.23699680e-03
   7.37456530e-02  8.51650722e-03  7.05678686e-02  1.09133106e-02
  -5.99192195e-02  5.86055145e-02  1.63389854e-02 -4.28939871e-02
  -5.27830608e-02  1.30115272e-02  3.67395431e-02  7.25849122e-02
   4.07149158e-02  3.00358757e-02 -2.79237647e-02 -3.85894813e-02
   1.79008823e-02 -4.92159352e-02 -3.67803276e-02 -8.55141506e-02]
 [-6.32617623e-03 -5.03053591e-02 -6.20628521e-02 -7.98852220e-02
   3.57060060e-02  2.01902315e-02 -3.25586013e-02  3.97896171e-02
  -7.25087821e-02 -2.30492987e-02 -7.33225346e-02  3.31572741e-02
   3.90771329e-02  1.76644921e-02 -4.42614220e-02  2.17385143e-02
  -2.77977027e-02 -4.62984033e-02 -5.36550432e-02 -2.52090804e-02
   3.20636556e-02  2.83775404e-02  5.61977550e-02 -2.92062759e-03
   2.62642130e-02  5.47894463e-02 -2.71001309e-02  5.34010455e-02
   5.78186885e-02 -4.91449647e-02  1.18293315e-02  1.92792043e-02
  -4.18393016e-02  3.53197008e-02  3.65847722e-02  3.38259190e-02
   4.89529297e-02 -7.99118727e-02  6.40682057e-02 -6.19962662e-02
   1.09753385e-02 -7.81874955e-02 -3.64955664e-02 -9.99645144e-03
   4.74122539e-02 -7.63044804e-02  7.52663091e-02 -6.22658432e-03
  -4.67362218e-02  6.75412342e-02 -8.08305517e-02  5.67125604e-02
   4.14576232e-02 -3.72186080e-02 -7.80187473e-02 -1.79090351e-03
   6.66094795e-02 -6.24031052e-02 -7.06404522e-02 -3.98155674e-02
  -1.72975510e-02 -6.62020221e-02  4.43726256e-02  5.43078110e-02
   3.99643555e-02  1.27859637e-02 -5.56586459e-02 -3.92674990e-02
  -3.56520712e-03 -4.66086678e-02 -1.60381198e-02  1.93604007e-02
   4.15480286e-02 -6.62777871e-02 -7.37851113e-03 -3.06874253e-02
  -5.74079677e-02 -5.67550100e-02  6.42649755e-02  7.32681528e-02
  -2.91786715e-02 -3.02248150e-02 -4.50416468e-02 -7.27360472e-02
   7.64823034e-02  5.29427305e-02  2.63394043e-02 -3.66330631e-02
  -1.56897008e-02 -1.18245184e-02 -6.27951548e-02 -7.45821595e-02
   4.69347909e-02 -3.12233306e-02 -1.84573606e-02  7.67192468e-02
   7.76045769e-03 -1.72664225e-03 -6.21264353e-02 -6.54855743e-02
  -7.76738897e-02  6.50199726e-02 -4.94214036e-02  7.39490986e-03
   5.25414124e-02 -5.64656705e-02 -6.29300550e-02  4.61059436e-02
   1.11037046e-02  6.91305175e-02  2.01561376e-02 -6.72448799e-02
  -2.24397182e-02  4.65278849e-02 -6.31709173e-02 -5.89350536e-02
   1.30422339e-02 -2.45262049e-02 -1.58806890e-02 -1.29790157e-02
  -4.30241190e-02 -3.15085873e-02 -7.64092356e-02 -4.55653854e-02
  -5.96465468e-02  5.69882169e-02  1.87193006e-02 -3.23201008e-02]
 [-4.81333770e-02 -1.19524822e-02  4.26030904e-02 -4.34646271e-02
   7.86357373e-03 -7.63600394e-02 -4.90568578e-02  1.51188374e-02
  -4.87948209e-03 -3.95479798e-03  9.09429789e-03 -1.43168792e-02
   7.70348981e-02 -7.50427395e-02  5.24424016e-03  6.64496347e-02
  -4.44361456e-02  3.76114622e-02 -1.11148208e-02 -3.92066836e-02
   3.11110914e-02 -1.61485821e-02 -5.90650439e-02  3.85422558e-02
   6.23384193e-02 -7.11075515e-02  5.56596741e-02 -1.42200738e-02
   4.10103425e-02 -2.02773511e-03  7.37997517e-02 -5.13467267e-02
   5.63333556e-02  2.30142176e-02 -2.21746415e-03 -6.24951944e-02
   6.02477416e-02  4.84957322e-02  2.88255513e-04  4.21079099e-02
   6.79673031e-02 -5.78641891e-04 -3.44178788e-02 -1.47292688e-02
   7.88856074e-02  6.61495328e-03 -8.10787603e-02 -6.84536994e-04
   2.53383964e-02 -4.30535711e-02  1.40827149e-03  3.43957767e-02
  -3.56577188e-02  3.98420021e-02 -6.18420243e-02 -2.03593038e-02
   3.00769135e-02  7.22829923e-02 -4.21613231e-02 -4.63666879e-02
   3.92174721e-02 -1.31785870e-02  7.45538250e-02 -2.27267370e-02
  -2.28395946e-02  2.69825011e-02  4.79259342e-03 -3.49557772e-02
  -5.50748408e-02 -1.09813288e-02 -2.29119584e-02  4.83321622e-02
  -2.20432058e-02  6.62518218e-02 -5.80389947e-02  1.20340511e-02
  -1.79552212e-02 -9.87928361e-03  2.67255083e-02 -1.56552270e-02
  -5.04564084e-02  3.10721770e-02  2.60948911e-02 -6.56450167e-02
   5.57119921e-02 -4.15921956e-02 -4.37567383e-03 -9.12789255e-03
   4.37692255e-02  4.83438298e-02  4.65029702e-02  1.82973370e-02
  -4.73236032e-02 -6.49959669e-02 -4.63085957e-02 -2.29265802e-02
  -6.98713660e-02 -3.18578966e-02 -2.97837481e-02 -2.44744346e-02
  -6.12325966e-02  1.01377070e-03 -5.42012304e-02  6.89827874e-02
  -6.04607910e-03  3.90055031e-02 -6.30737767e-02 -6.23294115e-02
  -1.20830163e-02  4.34973463e-02 -3.51471677e-02 -5.90410866e-02
   8.92321020e-03  2.82205567e-02  4.56574932e-02  6.75736144e-02
   1.22560933e-02  3.55581194e-03 -3.16123776e-02 -1.34445280e-02
  -8.09416324e-02 -3.18693072e-02  7.08558187e-02  5.74953333e-02
   5.58904186e-02 -5.74934632e-02  1.79792270e-02  7.21672177e-03]
 [ 3.33545357e-03  5.02295792e-04 -6.40784204e-02  4.37005758e-02
  -1.72016025e-03  1.58225372e-02  3.07160243e-02  6.08960167e-02
  -2.92259715e-02 -2.61334293e-02 -6.89985529e-02  6.45289496e-02
   1.59881115e-02 -7.11183026e-02  3.29093412e-02  7.42267147e-02
   3.93298268e-02  7.42845982e-03 -1.01404637e-02 -3.49216834e-02
   3.59735116e-02 -1.35268867e-02  7.99796954e-02 -5.74952960e-02
   3.39243859e-02 -5.43384552e-02 -2.24869028e-02 -6.33428544e-02
   2.79586017e-02  6.45401254e-02  1.35617927e-02 -3.76543589e-02
  -3.73990536e-02  1.94980353e-02 -5.33646345e-03 -5.08243404e-02
  -6.96740374e-02 -1.51723847e-02  7.15572461e-02 -3.77341472e-02
  -3.47196534e-02 -3.72524485e-02  4.84531745e-02  7.12001398e-02
   7.91020915e-02 -2.53484324e-02  4.29866984e-02  7.18254969e-02
  -2.75465958e-02 -7.26952255e-02  5.99050596e-02  1.66877955e-02
  -7.68651590e-02 -2.24735215e-02 -7.98155442e-02 -2.67351791e-02
  -6.46147728e-02  2.17377543e-02  7.22907409e-02  4.79772910e-02
  -6.46668673e-03 -6.59063011e-02 -4.39368188e-04 -6.86786398e-02
  -7.61922076e-02  1.68440863e-02  5.99274561e-02 -4.60862257e-02
   3.29770595e-02  8.70706886e-03  4.43605855e-02  3.08871269e-04
   9.14883614e-03  4.18487787e-02 -4.20328975e-02  2.98389569e-02
   7.09247664e-02  3.17597911e-02 -7.30484724e-04  7.96954855e-02
   6.32266626e-02 -2.68311575e-02  5.97241744e-02 -5.84845990e-03
   1.78303942e-02 -5.22856191e-02  6.26440123e-02  2.19522193e-02
  -4.46645692e-02 -5.56941330e-03 -3.06007713e-02  2.14742124e-03
  -7.13537782e-02  6.24327362e-03  7.24475607e-02  1.71504840e-02
   1.39601529e-04  2.09066719e-02  4.13868055e-02  7.09763989e-02
   3.87713388e-02 -6.73325360e-02  3.71891335e-02 -1.90369524e-02
   1.27366334e-02 -4.70453463e-02 -4.39375639e-02 -4.24097814e-02
  -7.44824260e-02 -1.66983157e-02 -5.18020466e-02  3.09748128e-02
   6.84378371e-02  5.28845862e-02  7.76890293e-02 -5.42336404e-02
   7.99016580e-02  1.13984942e-02  6.28191009e-02  1.68478191e-02
  -3.64948921e-02 -4.12973650e-02 -2.25760154e-02  6.69283047e-02
  -6.85818493e-02  2.06799135e-02 -1.56585127e-02 -4.64416444e-02]
 [ 3.19001079e-03  6.48130998e-02 -1.05239004e-02 -7.60450810e-02
  -4.22576256e-02 -1.56180933e-02  8.08663294e-02 -3.73280235e-02
  -5.86040393e-02 -5.92394769e-02 -4.41234261e-02 -7.53404275e-02
  -5.65067641e-02  4.97937426e-02  2.93709487e-02 -4.56617661e-02
   6.34721890e-02 -7.63329491e-02  6.95320293e-02 -4.88822311e-02
   5.83415255e-02 -1.91110559e-02 -3.22156139e-02  7.39946142e-02
  -2.75370218e-02 -2.43833326e-02  2.58756727e-02 -1.33758932e-02
  -2.59671211e-02  4.20060158e-02  4.52289507e-02 -4.30838168e-02
   3.52524221e-02 -5.02923243e-02  7.86809698e-02  2.48240754e-02
   1.00800470e-02  4.89556864e-02  1.55911744e-02  9.02055949e-03
   4.52453420e-02  4.96450812e-03  6.50645867e-02 -5.45412004e-02
   1.37484074e-02  2.07618326e-02  1.86213329e-02  6.81203529e-02
  -7.93626606e-02  1.71436965e-02  2.18718126e-02  2.04770342e-02
  -5.31615280e-02  6.61585853e-02  6.30915165e-04  3.59751731e-02
   7.37139061e-02  1.34360790e-03  7.71747604e-02 -2.44610161e-02
  -1.65640637e-02 -1.06575117e-02 -6.35881722e-03  4.88265529e-02
  -8.79298896e-03  2.90426463e-02 -4.89901789e-02  7.42389634e-02
   3.02615166e-02  4.13533524e-02  2.86340266e-02 -5.45000285e-02
   2.96453983e-02  1.95891932e-02  2.34800056e-02  6.16474822e-02
   7.78604969e-02 -5.94613701e-03 -5.73330298e-02 -4.91677970e-03
   2.65672281e-02  2.79401913e-02  2.52580047e-02 -7.11077228e-02
  -4.11617830e-02  3.32532302e-02  6.66253939e-02 -3.89246345e-02
   5.12877479e-02 -6.26501739e-02 -7.19314367e-02 -7.08367676e-03
   6.91203997e-02 -5.31073809e-02 -8.56792927e-03  2.04864144e-03
   4.83602211e-02 -8.00246522e-02 -1.27352178e-02  7.08479360e-02
   2.85744295e-02 -7.22123459e-02  5.41273579e-02 -6.10974431e-02
   5.75712994e-02  5.37936166e-02 -6.85089827e-02  1.50295347e-03
   6.53466508e-02  4.08553705e-02 -2.98572145e-02  4.07492369e-02
   4.19133082e-02 -8.09974223e-02  1.27914175e-02  3.19197774e-04
  -3.86822447e-02  7.47973397e-02  6.05834052e-02 -4.58347686e-02
  -3.42922583e-02 -8.65634531e-03 -2.53727399e-02 -5.81317395e-02
   3.04522738e-02 -2.94878520e-02 -7.08464384e-02  7.74511620e-02]
 [-6.24518991e-02  5.97300753e-02  1.42171085e-02  6.23719171e-02
   1.27242133e-02  4.43174466e-02 -5.32712527e-02 -7.29384199e-02
   7.74252191e-02 -5.25488928e-02 -3.76876406e-02 -3.53717990e-02
   3.64254415e-03  4.68510315e-02  6.91955760e-02 -2.12198198e-02
   3.97304818e-02  4.80090827e-03  1.65723041e-02  7.37253353e-02
  -7.11737424e-02  3.97454202e-03 -7.74510875e-02  2.01666206e-02
   7.74849728e-02  6.73852861e-03 -4.74524349e-02  8.12974572e-03
  -3.25722732e-02  1.06515512e-02 -3.96261290e-02 -5.97864389e-04
   4.78187427e-02  5.28197065e-02  2.29367092e-02 -2.87461132e-02
  -5.54986186e-02 -3.73365134e-02 -5.39697148e-02  2.27156356e-02
   5.73384762e-03  4.65397462e-02 -9.25028324e-03  1.73187256e-02
  -9.81979072e-04  8.60363245e-03  6.33267388e-02 -2.95588039e-02
  -8.61968100e-03 -4.09020707e-02  2.59449780e-02  7.20575973e-02
   1.40437409e-02  2.43615955e-02  3.53831351e-02 -7.24130347e-02
  -1.96495093e-02 -5.60301915e-02 -7.70904496e-02  6.90746680e-02
   2.36513019e-02  3.91902849e-02 -7.48752877e-02  3.04085091e-02
   3.48666459e-02 -2.25171112e-02 -6.75628558e-02 -5.45316078e-02
   1.63651109e-02 -7.32266754e-02  2.07576752e-02  7.12760016e-02
  -6.63768202e-02 -2.33373456e-02 -5.12653887e-02 -2.42462456e-02
  -5.60864806e-03 -5.90150766e-02  6.30154237e-02 -2.68610343e-02
  -4.14363481e-02 -3.80841903e-02  4.00298759e-02 -7.34740719e-02
  -6.60094097e-02  6.81807473e-02  7.63963386e-02  3.08522433e-02
  -5.12077585e-02  2.94144079e-02  1.84610337e-02 -5.18615469e-02
   3.11157331e-02  6.05616197e-02 -2.79877223e-02  7.74264708e-02
  -7.97590613e-03 -4.17182632e-02 -7.29752406e-02  2.00851634e-02
   2.54176632e-02  5.06915674e-02 -4.00566757e-02  4.79028448e-02
  -1.09389052e-02 -5.27157038e-02  1.39637962e-02  7.38613233e-02
  -1.89623423e-02  3.90107110e-02 -4.99297902e-02 -4.94820289e-02
   2.53363475e-02  1.10952109e-02 -2.30604596e-02  7.15065226e-02
   1.37781352e-02  4.33895960e-02  5.95383123e-02 -7.41682947e-02
   7.29161277e-02  6.58684596e-02  4.11067083e-02  5.58547154e-02
   7.69396350e-02 -2.29569972e-02  1.48461312e-02 -6.72034323e-02]
 [-3.15600075e-02 -2.41864510e-02 -7.08194673e-02 -1.60238296e-02
   5.15077487e-02  1.00873783e-02  7.90066496e-02  2.69537643e-02
  -7.84428194e-02  1.65228918e-02 -7.17349574e-02  6.42310008e-02
   4.80720773e-02 -3.22587006e-02 -7.96045810e-02 -2.97215953e-02
   5.82946911e-02  2.16373727e-02  3.62534299e-02 -4.26537544e-02
  -4.69053574e-02 -4.68146577e-02 -5.28000966e-02 -6.68106973e-02
  -3.69604789e-02  7.08331391e-02  5.18104956e-02 -4.67878357e-02
   5.28244451e-02  2.51407549e-02  1.78521872e-02 -4.67822701e-03
  -5.19432127e-02 -2.83188373e-03  7.17428848e-02 -2.71489993e-02
   8.07719156e-02  8.06859955e-02 -1.65135339e-02 -4.66674156e-02
  -2.79521011e-02 -9.97222215e-03  1.98431462e-02  6.78750500e-02
   2.35042945e-02 -7.28365630e-02  7.23261908e-02  1.06155053e-02
   7.70155713e-02 -6.83698058e-03 -4.28660102e-02 -1.18503943e-02
   5.23329750e-02 -2.60821469e-02  4.35927510e-03 -6.14450313e-02
   8.98651034e-03 -3.16554308e-03  3.09937671e-02 -9.61181521e-03
  -4.81537767e-02  7.17163309e-02  6.28962293e-02 -7.89031833e-02
   1.01904720e-02 -1.99416280e-03 -2.79191658e-02  7.96205327e-02
   5.45696169e-03  2.11515203e-02  6.63818046e-02 -6.66560084e-02
  -6.09359667e-02  1.74589455e-04  3.30054313e-02 -4.64888103e-02
  -6.32294342e-02 -5.93382008e-02 -1.99968480e-02  7.01610520e-02
  -4.79008518e-02 -7.46769905e-02 -5.45208380e-02 -6.18291646e-02
  -1.40414834e-02  3.81864533e-02 -7.21252412e-02 -3.62923630e-02
  -4.71160077e-02 -7.46302158e-02 -3.73930968e-02 -7.70217404e-02
   2.55178660e-03  1.75632536e-03 -5.75599857e-02  6.93826452e-02
  -6.08412176e-03  4.52680811e-02  5.98856136e-02 -5.98296076e-02
   7.58363307e-03 -3.42089683e-02  7.64270872e-03  6.83372393e-02
  -7.25390464e-02 -1.13552958e-02 -4.46661338e-02  2.60226801e-02
   3.27491388e-02  1.08396038e-02  1.61136612e-02 -4.13380340e-02
  -7.70193636e-02  7.99552873e-02  6.38785884e-02 -8.05383697e-02
   2.38313377e-02 -3.66261974e-02  9.11501050e-03 -3.29870582e-02
   5.78864664e-03 -7.73719400e-02 -7.36619085e-02  6.00089356e-02
  -8.07584003e-02 -2.69904248e-02 -4.57743555e-03  2.27969512e-02]
 [ 6.70340285e-02 -2.41370611e-02  6.21586516e-02  1.16205961e-02
  -4.36339527e-02 -1.72909349e-02 -2.84976326e-02 -6.43986613e-02
  -6.78572655e-02  7.77580217e-02 -5.85885718e-02  1.06896907e-02
  -8.00082162e-02 -5.10795489e-02 -4.43012230e-02  8.34666193e-03
  -1.64627507e-02  5.57220951e-02  5.76344952e-02  6.48128986e-03
  -4.07729857e-02 -7.11180642e-02  3.18654552e-02 -6.45347834e-02
   8.03332701e-02  7.17918947e-02 -2.97982320e-02  6.62673488e-02
  -6.44093752e-02 -3.02982815e-02  4.25509885e-02  3.09877917e-02
  -5.36818430e-02 -6.85735345e-02 -6.54939488e-02 -4.95087355e-02
   7.58235157e-03 -3.97712253e-02 -8.04625824e-02  4.11981046e-02
  -6.06789216e-02 -1.87384449e-02 -5.96865416e-02 -7.24591017e-02
  -2.37885453e-02  3.91213819e-02  3.36381793e-03 -2.24240869e-03
   3.21129113e-02  3.74086872e-02 -5.04338406e-02  3.18280011e-02
  -3.23707610e-03  6.15439489e-02  2.91573778e-02  2.94893235e-02
   7.22883120e-02 -7.95858651e-02  1.68403536e-02  3.93473282e-02
  -5.11269048e-02  4.02209386e-02  4.68721464e-02 -2.68012397e-02
  -2.30730101e-02  1.37881935e-03  5.43823317e-02 -6.85308352e-02
  -7.17536211e-02  5.49672022e-02 -2.97514908e-02  2.68553272e-02
   7.88547918e-02 -3.85118388e-02 -4.59518284e-03 -5.11789843e-02
   5.31061366e-02 -9.42006707e-04 -8.04742873e-02 -2.47512460e-02
   4.03780788e-02  7.85125867e-02 -2.23023184e-02  5.05361035e-02
   7.36818835e-02  5.55604473e-02 -7.25113302e-02 -6.44107535e-02
   4.42214385e-02  7.07591996e-02  6.89576343e-02 -3.41245569e-02
   3.49388346e-02 -1.43920854e-02 -2.12535076e-02 -6.67366832e-02
  -3.46544087e-02  4.42989990e-02 -2.48646624e-02  1.33787990e-02
  -7.45075271e-02  4.84940484e-02 -6.93204775e-02  8.73783976e-03
  -2.75669247e-03  6.07848838e-02  1.97954476e-03  7.19223544e-02
   1.14610568e-02 -1.35487989e-02  8.97899270e-04  2.07694918e-02
  -6.52961433e-03 -8.01570565e-02 -1.13611743e-02 -1.24980882e-02
   4.66952696e-02  1.49214119e-02 -1.43497139e-02 -3.75870429e-02
   7.37121478e-02 -6.18245080e-02  5.64874187e-02 -3.05703729e-02
   3.29275131e-02 -6.93295449e-02 -8.50529224e-03 -3.53879295e-02]
 [-4.18337695e-02  5.05144075e-02 -4.02721055e-02 -2.77907029e-02
  -6.91573769e-02  1.85701996e-02  1.60000846e-02 -2.35772543e-02
   4.63632271e-02 -1.15374252e-02  1.11772269e-02  6.99626282e-02
  -6.97365552e-02  3.29171345e-02  6.36045262e-02  4.19893265e-02
  -5.51334769e-03  3.53991613e-02  3.17416117e-02 -2.73055844e-02
   1.08005181e-02  7.90044591e-02  2.14536563e-02 -5.81311435e-02
   7.56672248e-02  4.72964123e-02  4.69049141e-02 -3.86852771e-03
  -4.34043109e-02  1.56723782e-02  7.54445046e-03 -3.46002989e-02
  -3.84843759e-02  7.22859725e-02 -8.46578926e-03  3.66072655e-02
   4.03811932e-02 -5.84784187e-02  5.27773127e-02 -7.41436183e-02
   2.24480703e-02 -1.83420703e-02 -6.95568100e-02  4.30548191e-03
   2.23810673e-02  7.81077668e-02 -7.13179857e-02  2.81411707e-02
   1.06652081e-02  2.47206092e-02  5.36835268e-02 -5.23399189e-02
   1.06999576e-02 -4.65672463e-02  6.58439919e-02  5.56731299e-02
   7.51331449e-04 -2.14901492e-02  6.99142441e-02  3.30882147e-02
   4.27462310e-02 -2.70950086e-02 -7.56625906e-02  3.39637995e-02
  -5.32515496e-02 -7.47299567e-02 -5.13597019e-02  7.62360618e-02
   2.46025547e-02 -4.23545688e-02  2.34484971e-02 -2.36861408e-03
   6.81862459e-02 -5.92727810e-02  5.76976016e-02  6.25226423e-02
   4.46865186e-02  6.00398555e-02 -2.37186961e-02 -1.78563893e-02
  -3.12091336e-02  5.28082252e-03  4.21546102e-02 -6.45029768e-02
  -5.50768897e-02 -6.21186420e-02  4.44687530e-02  7.40608200e-02
  -6.85743093e-02  6.90179542e-02 -7.21949786e-02  3.58403251e-02
   3.90031636e-02  4.10105288e-03  2.90729851e-03  2.86142081e-02
  -1.48874372e-02 -4.95234318e-02  3.43369469e-02 -7.45106786e-02
  -7.09527433e-02  1.83399618e-02 -4.98085357e-02  7.46965408e-03
  -4.86512184e-02  4.92426082e-02 -5.87185994e-02  1.13644972e-02
  -1.10872835e-02  5.18801883e-02  2.56587490e-02  2.30520815e-02
   1.81006491e-02  3.31747010e-02 -3.02169248e-02  5.48979566e-02
  -7.36716315e-02 -1.55587643e-02 -5.93663007e-02 -7.38948360e-02
   4.97717336e-02 -2.09286027e-02 -3.91007215e-03  1.52880102e-02
  -5.63815311e-02  7.84410909e-02  5.85781857e-02 -7.82939494e-02]
 [ 4.11865115e-03  1.16447732e-02 -6.01335093e-02 -2.93276906e-02
  -3.68183851e-03 -7.96621367e-02 -2.91729271e-02 -8.08766931e-02
   7.11575523e-02  4.69805822e-02 -5.05231060e-02 -2.79221088e-02
  -1.21617764e-02 -6.61137253e-02 -3.79409119e-02  6.63243756e-02
   9.76584107e-03 -3.30950059e-02 -2.22270563e-02 -4.05456834e-02
   2.50844210e-02 -7.88027421e-02 -8.06463733e-02  1.23080537e-02
   1.34678110e-02 -1.02539212e-02  4.83395681e-02  7.01198727e-03
  -3.61289345e-02 -7.78293833e-02  2.32368633e-02 -6.09829053e-02
  -5.71328402e-02  7.11511001e-02  3.91938388e-02  7.95473158e-03
  -2.65203714e-02  4.41543758e-03  5.92415854e-02 -4.84461524e-02
   4.95972410e-02  2.01756656e-02 -5.48561439e-02 -1.66820511e-02
  -7.26933479e-02  1.53580531e-02  3.36684808e-02  3.61628160e-02
  -7.15389848e-02 -5.37259169e-02  5.58800027e-02 -5.57860434e-02
  -1.49586424e-02  6.96174279e-02  1.54311955e-03 -1.96181051e-02
  -8.09932277e-02 -2.07945518e-02 -6.71249777e-02  6.52229860e-02
   2.31067836e-03  4.69262898e-03 -1.16913393e-02  4.42067757e-02
   5.58484271e-02  2.52121165e-02 -1.17820501e-02 -1.22466385e-02
   7.91601762e-02 -7.45005459e-02  2.37110406e-02  8.33695382e-03
  -1.20514184e-02 -6.99245259e-02  3.15349475e-02  2.47410312e-02
  -5.28311916e-02 -3.77339348e-02  4.57202122e-02 -6.83664232e-02
  -2.34631002e-02 -1.33236796e-02 -6.59461170e-02 -2.18979158e-02
   1.33122504e-02  3.69403884e-02  5.76760620e-03  3.63905579e-02
   6.54227659e-02  1.54398307e-02 -4.01047319e-02  2.62947902e-02
   2.36335844e-02 -8.07191432e-02 -4.39680628e-02  1.08501017e-02
  -3.13401110e-02 -3.17003280e-02 -3.96484658e-02 -6.39218390e-02
   5.62220886e-02  4.04099673e-02 -3.29623818e-02 -2.89877057e-02
   2.57045031e-04 -2.97792219e-02 -7.51167610e-02  3.93003970e-02
   5.93406931e-02  3.13603580e-02  6.29109368e-02 -5.07939197e-02
   3.04267853e-02  8.03791210e-02 -5.06452844e-02  5.04176319e-03
  -4.00031507e-02 -4.79793064e-02 -5.51385209e-02 -7.44519159e-02
  -8.09902325e-02 -5.61999828e-02  4.70831990e-04 -8.04626644e-02
  -7.88431764e-02  6.98167160e-02  4.15866077e-03 -2.76878625e-02]
 [-6.59094676e-02  5.39519563e-02  3.14812362e-03  4.25979421e-02
  -6.57991618e-02 -7.75758773e-02  1.48570389e-02 -4.18254174e-02
  -1.54689401e-02 -5.03946804e-02  7.76294544e-02 -7.99101666e-02
   4.27031592e-02  2.26271078e-02 -6.83360025e-02 -3.77824754e-02
  -2.11056322e-03  5.90124652e-02 -2.40261927e-02  5.38338050e-02
  -6.96194842e-02 -7.97299519e-02  6.73632696e-02 -9.21568274e-03
   7.22367540e-02 -6.05529360e-02  6.77885190e-02  3.00301909e-02
  -3.13728154e-02 -6.59626126e-02  4.68044505e-02  5.10475561e-02
   6.40903041e-02 -5.61740473e-02  6.41227886e-02 -5.17990068e-02
  -4.31457572e-02 -3.47410440e-02  4.19703797e-02  3.14887241e-02
  -2.07664073e-03  9.56532359e-03  1.01669729e-02 -5.32051548e-02
  -8.03716183e-02 -1.54196024e-02  6.85257092e-02  9.44946706e-03
   6.35378733e-02  4.73245308e-02 -5.18541038e-02  3.27178091e-02
   5.32787517e-02  1.09495968e-02  2.83899754e-02 -3.07944641e-02
  -1.48409605e-03  1.66917965e-02 -2.25001127e-02  6.66889623e-02
  -4.69158739e-02 -2.89653875e-02  5.36975786e-02  3.90571579e-02
  -4.19671647e-02 -2.13210545e-02  6.29046783e-02  1.88948959e-03
  -3.34895849e-02 -2.34129764e-02 -3.05352136e-02 -3.75515185e-02
   5.02235517e-02  7.05119297e-02 -5.73646277e-02  2.46271715e-02
  -3.08041908e-02 -6.66640699e-02  2.01550722e-02 -1.68758407e-02
   6.37226924e-02  5.05804494e-02  7.43881389e-02 -5.58547527e-02
  -7.88831860e-02  7.80293122e-02  6.06256649e-02  6.06248155e-02
  -4.16153260e-02  6.77103326e-02 -3.93738039e-02 -9.13562626e-03
   1.43662840e-02  4.18486446e-03  3.85495648e-02 -7.87520558e-02
   7.87825063e-02 -6.44631013e-02  2.28010342e-02  4.76253852e-02
  -8.06310028e-02  1.65479779e-02 -4.60068993e-02  7.23823085e-02
  -2.47594453e-02 -7.40219802e-02  3.80068794e-02  6.12048283e-02
  -1.16170570e-02 -1.26730055e-02 -3.55238765e-02 -9.26591456e-04
   1.54816806e-02 -4.04318981e-02 -8.82133842e-03  7.56594762e-02
  -6.94138259e-02  4.61961254e-02 -2.23979466e-02  4.80113104e-02
  -3.24905664e-02 -4.57359701e-02  5.54231033e-02 -3.67674455e-02
   4.20257449e-02  5.13343289e-02 -1.48159042e-02 -1.06067657e-02]
 [-5.52330837e-02  8.09665099e-02 -6.23936318e-02  8.09472874e-02
  -5.00396490e-02 -2.74054073e-02 -7.02454150e-03  4.07904312e-02
  -2.77111828e-02  6.73545375e-02  6.26705959e-02 -1.14365965e-02
  -1.83824301e-02 -7.67010748e-02 -2.48675272e-02 -1.54713169e-02
   6.87908605e-02  3.79378796e-02 -6.12962805e-02  4.34752852e-02
   7.17717782e-02 -7.01338053e-02 -6.46495074e-03  2.37453654e-02
  -7.99296200e-02  2.54899263e-02 -7.26986453e-02  3.73716503e-02
   2.29074061e-03 -2.30038539e-02 -1.87216774e-02  3.00146863e-02
  -6.13748729e-02  3.08638513e-02  6.98116943e-02 -6.12545088e-02
   6.20229617e-02  3.56220752e-02 -1.45935342e-02 -6.54636621e-02
   1.16804689e-02  2.10478827e-02  2.13718787e-02  3.08072865e-02
   2.68715918e-02 -7.00484663e-02  5.13975099e-02 -6.97177052e-02
  -3.85936946e-02  2.42011473e-02  2.73245499e-02  9.15633887e-03
   7.74136931e-03 -6.13678694e-02 -2.35181190e-02  3.00792009e-02
   9.68471915e-03 -1.02421641e-03  7.32402727e-02  5.27742729e-02
   3.72149795e-03  4.47190553e-03 -7.18220770e-02  2.61513963e-02
   4.14124876e-02 -7.36198053e-02  9.56286490e-03 -1.93384141e-02
   2.98580229e-02  5.24573401e-02 -6.34796321e-02 -5.60590029e-02
   7.95785114e-02  2.47173607e-02  3.35709825e-02  1.13763139e-02
  -6.26382977e-03  4.44929823e-02 -7.54851103e-03 -2.14642175e-02
  -4.10693288e-02  7.91494623e-02 -1.00010708e-02  5.78942820e-02
  -6.26877099e-02  3.97216827e-02 -2.21694857e-02  5.48539385e-02
  -7.23732412e-02  2.38613933e-02 -1.06772780e-03  6.37170896e-02
  -3.96385044e-03  2.47782990e-02 -2.01014653e-02 -3.18082161e-02
   8.06172863e-02  4.10783589e-02  7.17067793e-02  3.91840190e-02
   5.65484241e-02 -2.12328546e-02  3.06612253e-03  4.73089293e-02
   4.65435311e-02 -4.83944416e-02  3.72808576e-02 -1.29133984e-02
   6.80657700e-02  2.24656910e-02  4.22642380e-02  8.00947919e-02
  -3.72576527e-02 -1.65262967e-02 -3.54909897e-03  7.77303204e-02
  -2.86195427e-03  3.01459506e-02 -5.73072135e-02 -7.46868551e-02
  -5.66734374e-03  4.67458144e-02  5.38617745e-02  2.84879059e-02
   5.94311133e-02 -4.70489413e-02 -2.24137269e-02 -2.22485773e-02]
 [ 7.49501809e-02 -5.58017939e-03  1.19748712e-02 -7.39745498e-02
  -8.32726806e-03  2.80295089e-02  8.06839690e-02 -6.86580241e-02
  -2.03433111e-02 -2.32158415e-02  6.23675436e-03 -7.31483996e-02
   4.06696647e-02 -2.76180506e-02  2.00328901e-02  3.39503959e-02
  -5.51737919e-02 -3.76536623e-02 -5.47343493e-03 -4.37769033e-02
  -3.30951586e-02 -4.27166782e-02  9.00685042e-03 -4.24325615e-02
  -6.75678253e-04  7.61877969e-02 -1.42571628e-02  4.30043340e-02
   8.00282732e-02  2.95531377e-02  1.29032657e-02 -2.47652456e-02
   3.62171233e-03 -2.99952924e-04 -7.75837153e-03 -4.69390824e-02
   7.91599602e-03  2.38360018e-02 -5.68540990e-02 -2.92539559e-02
   3.69688570e-02  7.66246542e-02  5.21393791e-02  1.81848854e-02
   7.01641515e-02 -4.63944189e-02 -2.08260715e-02 -1.70522779e-02
  -4.70568910e-02 -6.64598793e-02  4.82639745e-02  7.20524564e-02
  -3.83122675e-02 -5.92202544e-02  7.72539601e-02 -8.48133117e-03
  -5.96634708e-02 -1.60026774e-02  2.89119408e-02 -5.97722456e-02
   3.29023376e-02 -4.06151079e-02  3.15017626e-02 -3.17070968e-02
   1.18120462e-02  1.99525058e-03  1.23859942e-03 -3.49741839e-02
  -2.01666541e-02 -4.40412015e-03 -4.08025347e-02  2.60462165e-02
   6.27816394e-02 -6.41259775e-02 -3.77156809e-02 -4.43822891e-02
   6.65713027e-02  8.95749778e-03  6.44344613e-02 -4.46261615e-02
   1.87518299e-02 -2.96433270e-03  1.62403658e-02 -2.34345756e-02
   2.21144110e-02  3.30965891e-02 -3.80615629e-02 -6.27828166e-02
  -3.21998745e-02  7.92340264e-02  5.38240597e-02 -5.69361299e-02
  -4.02229466e-02  5.01324609e-02 -2.16061398e-02 -5.81499971e-02
   6.73434213e-02  6.28936961e-02  2.24713013e-02 -7.94992298e-02
  -7.25821480e-02  3.65864560e-02  4.15597484e-02 -2.83649527e-02
  -5.24889827e-02 -2.15552039e-02  5.33410162e-03 -2.93552876e-04
  -8.73310119e-03 -6.63953871e-02 -3.16309817e-02  4.64653447e-02
  -4.71371450e-02  4.03600559e-02 -6.79445341e-02  5.65327778e-02
  -4.57770377e-03  6.92047924e-03 -7.13982806e-02  3.68400216e-02
   3.94945294e-02  5.81157133e-02  4.37724739e-02 -5.98988682e-03
  -1.07432976e-02  4.15991396e-02 -5.99583611e-02 -5.88032827e-02]
 [ 3.25669572e-02  7.44345412e-02 -1.98842771e-02 -5.41899577e-02
   8.01630393e-02 -1.03126317e-02  6.44399896e-02 -5.26249111e-02
   3.40170413e-03 -1.44532546e-02  5.82197234e-02 -6.55821711e-02
   1.77792832e-02 -3.10483761e-02  7.83139467e-03  4.24336866e-02
  -6.62014633e-02 -8.63588601e-03  3.59828547e-02  5.36038950e-02
  -4.25434485e-02  5.51990494e-02 -4.29531299e-02 -1.25202164e-02
  -6.78449422e-02  4.26769778e-02 -4.06518318e-02 -4.97213788e-02
  -4.22521755e-02 -1.37851387e-03 -1.10107288e-02 -3.98070402e-02
   6.62037954e-02  2.99380124e-02  3.73080373e-03  7.52850994e-02
  -8.00446495e-02  6.17115274e-02 -5.65839410e-02 -6.49001673e-02
  -6.11197017e-02  8.02475959e-03  3.15352753e-02  1.87101364e-02
   3.77957001e-02 -7.20646381e-02  2.79064626e-02 -5.81369624e-02
   2.38560736e-02 -2.07858868e-02 -7.69661814e-02 -6.89774901e-02
   3.11575979e-02  5.97786680e-02  5.86364642e-02 -5.59549443e-02
  -3.63235921e-02  7.01205209e-02 -7.15968609e-02  5.69994822e-02
   1.34257302e-02 -3.14736813e-02 -6.08073175e-03  1.39576197e-03
   3.96367833e-02  3.69828567e-02  2.12639272e-02 -1.02650970e-02
   7.06954077e-02 -5.49405366e-02  3.63174975e-02 -7.85082579e-03
  -1.02418363e-02  4.09053564e-02 -6.48625195e-04 -6.75124973e-02
  -6.96762204e-02  1.83433220e-02  5.13683632e-02 -1.33235082e-02
  -4.34875228e-02  2.37819701e-02 -6.85347617e-02 -4.21201438e-03
   7.69160017e-02 -6.24372810e-02  1.52801573e-02  4.47893217e-02
   4.38757762e-02 -9.17905569e-03 -3.16348299e-02  3.02853063e-02
   1.80441439e-02  5.47690019e-02  3.08491513e-02  1.79258883e-02
   3.95385176e-03 -7.25243315e-02  7.98618272e-02  6.48121908e-02
  -6.94484413e-02  2.23146006e-02  1.23034716e-02 -2.25018710e-03
   2.36770213e-02 -2.52216682e-02  6.00275174e-02  3.03199366e-02
   3.01926360e-02 -6.18244484e-02 -6.59157187e-02  8.05403292e-03
   3.89734432e-02  8.14764947e-03 -7.72868693e-02 -3.87070179e-02
   5.25416806e-02 -3.91043611e-02 -1.95269659e-02 -1.03150308e-03
   2.29854286e-02  9.09874588e-03  1.56174004e-02 -5.58465533e-02
  -7.22097754e-02 -5.99470064e-02  5.53392097e-02 -4.30499166e-02]
 [-6.12627678e-02 -4.91928048e-02 -5.49660809e-02 -6.26430959e-02
  -6.38096035e-03  4.00898233e-02  5.46540841e-02  3.21884677e-02
   3.94386798e-02 -6.74204528e-02  2.44896561e-02 -4.46020886e-02
   5.91038167e-03  7.64284283e-03 -4.51265611e-02  4.55880240e-02
   3.29949111e-02  3.11495364e-02 -1.62917227e-02 -2.84104794e-03
   3.59146073e-02  3.03927511e-02 -5.94346002e-02  3.69196981e-02
  -6.39435351e-02  6.41681179e-02 -5.32597862e-02  6.76952079e-02
  -3.32730338e-02  2.63705179e-02 -6.92956820e-02  5.18477485e-02
  -7.85966516e-02  7.51503035e-02 -1.37560293e-02  1.76240206e-02
  -1.88314244e-02  1.62404552e-02  4.71566543e-02 -7.64727816e-02
   1.83190182e-02 -1.24092922e-02 -5.23733571e-02  4.71339598e-02
   1.26634911e-02  5.22230938e-02  4.25921008e-02  1.09975338e-02
   5.86288348e-02 -2.30439007e-03 -4.95679677e-02  3.23092341e-02
  -1.98500492e-02  4.81962040e-02  4.94311526e-02 -3.20421495e-02
   3.23966965e-02 -7.40172863e-02  7.44233057e-02 -5.40930331e-02
  -7.84074292e-02  2.69145817e-02 -5.08164689e-02 -6.19499721e-02
   1.74165592e-02 -2.19013803e-02 -7.38467574e-02  7.25507811e-02
  -9.20207053e-03  2.46100575e-02  6.29808232e-02 -6.90576658e-02
  -4.68880497e-02 -3.39170545e-03  6.93243966e-02 -6.62949234e-02
  -5.63764237e-02  5.05078360e-02 -3.61486189e-02  6.50677159e-02
  -4.98972014e-02 -5.93380630e-02 -1.12352595e-02  3.97992134e-03
   1.09712183e-02  1.08169019e-03 -7.86686465e-02 -6.75235391e-02
  -6.75783679e-02 -5.59295341e-02 -4.68039252e-02  5.43829873e-02
   5.71985468e-02  2.06205100e-02  7.63798282e-02  7.92609379e-02
   3.12439650e-02  4.22479808e-02  7.92240426e-02 -6.67614490e-03
  -5.64202815e-02 -3.51940989e-02 -4.01980616e-02  6.92176744e-02
   2.60313079e-02  3.18462178e-02  5.21581247e-02  6.55832514e-02
   5.76433465e-02  5.81019446e-02 -8.01320523e-02 -4.76243719e-02
   5.24767414e-02 -2.57004835e-02 -6.91934228e-02 -6.22300282e-02
   4.18122113e-02 -8.10152516e-02  2.07770616e-03  1.64583400e-02
  -5.91094084e-02  2.51627043e-02 -3.89572233e-03 -4.72407788e-03
   5.33159301e-02 -1.80097371e-02  6.67151883e-02 -5.05644903e-02]
 [-7.67711326e-02 -1.66187435e-03  5.80245033e-02 -1.12391487e-02
   7.40424767e-02 -5.54425269e-03  5.50746918e-05  5.84214106e-02
   9.82774049e-03  5.11377230e-02 -5.66390753e-02  2.56660059e-02
   2.42051706e-02  2.24937871e-02 -5.58183193e-02  1.24773830e-02
   4.71149012e-02 -4.19258326e-03 -5.15419617e-02  1.86349452e-03
   6.26217797e-02  1.58069134e-02  1.38736442e-02  3.79655659e-02
  -7.82074481e-02  5.61571345e-02  7.01822713e-02  7.03981519e-03
   3.39488462e-02  3.49116474e-02 -6.04952872e-02 -2.71238424e-02
   1.96507275e-02 -7.45204464e-02 -5.26389480e-02  1.80688724e-02
   7.99256042e-02 -1.22349709e-03  4.18072566e-02  8.03859159e-02
  -7.10072592e-02  7.62322769e-02  1.82990581e-02 -6.74183592e-02
   6.58198223e-02 -5.74120469e-02 -5.39517291e-02 -1.97871216e-02
   1.42975226e-02  5.71363792e-02  5.44180796e-02  4.14969176e-02
  -2.43987143e-03 -1.63085088e-02 -1.26353353e-02  7.04355016e-02
   1.85616910e-02 -4.38127927e-02  6.16824999e-02  3.68030444e-02
  -7.21532106e-02  3.58906463e-02 -4.98342961e-02  5.02660051e-02
   2.67597809e-02  5.72793707e-02  6.56459406e-02  7.96888992e-02
  -7.13396445e-02 -2.08818652e-02  3.07630226e-02  5.23531511e-02
  -6.16339855e-02  7.17983171e-02  3.68128940e-02  5.91159835e-02
  -1.35449097e-02  5.84681258e-02 -5.62645122e-02  6.37285337e-02
   4.57369015e-02  5.81676140e-02 -3.02709378e-02  3.71574014e-02
   4.41504791e-02  5.65695390e-02  2.77063325e-02  7.48789832e-02
  -1.57978833e-02  6.79421350e-02 -5.68244718e-02  6.42415956e-02
  -5.85787073e-02 -1.06763691e-02  1.28039271e-02  4.59406003e-02
   2.36168802e-02 -4.72360849e-03  7.57404044e-02 -4.43492830e-03
   5.06477877e-02  4.48062345e-02 -3.55037265e-02 -5.29432371e-02
  -6.51837587e-02 -3.72397266e-02 -3.04263607e-02 -7.47488141e-02
  -3.78195271e-02 -6.32584840e-03  5.30605987e-02  4.32825983e-02
  -1.29454434e-02 -6.50357082e-02 -2.63929293e-02 -5.28552309e-02
  -6.19242713e-02 -5.50903678e-02 -6.75939545e-02  6.49373755e-02
   9.73317772e-03  2.72427946e-02  3.09917331e-02  1.47546232e-02
  -6.70911372e-03 -4.44232263e-02  8.04174170e-02  6.80157021e-02]
 [ 2.22099423e-02 -3.19777168e-02 -6.25956357e-02 -4.33384068e-02
  -3.49007957e-02  4.08495888e-02  7.70793930e-02 -2.63427086e-02
  -7.53502548e-02  3.42490971e-02 -3.36388387e-02  4.00291383e-02
   3.20941880e-02  3.27594876e-02  3.34267542e-02 -2.52251476e-02
   8.37162882e-03  9.84332711e-03 -1.71491876e-02 -1.45326927e-02
  -4.24025208e-03  4.71129939e-02  2.74442583e-02  1.24729499e-02
   5.34325615e-02 -1.63998231e-02 -3.72210816e-02  6.84770718e-02
  -6.81200325e-02 -2.61765942e-02  5.24518266e-02  3.15983370e-02
  -2.39786021e-02  4.50895801e-02  7.56105408e-02  2.04977244e-02
  -4.13803011e-03  4.52006981e-02  9.15549695e-04  5.00119701e-02
  -2.56919377e-02  5.53087369e-02  5.82934096e-02 -6.86305016e-03
  -3.60069871e-02  4.62131277e-02 -6.84223250e-02  4.47937623e-02
  -4.64247614e-02  2.20690817e-02 -7.95746446e-02  2.31686756e-02
   6.60375282e-02  4.67757359e-02  9.49572772e-03 -3.06083895e-02
  -9.63591039e-04  1.82909742e-02 -4.16628197e-02  3.73599902e-02
   1.55811980e-02  7.23541155e-02  2.63647959e-02  1.82971358e-03
   2.20181271e-02  6.68501779e-02 -4.19213735e-02 -7.20953494e-02
  -7.59711117e-02 -2.21667774e-02 -5.71202524e-02 -7.18759745e-02
  -2.38384008e-02  2.76684836e-02  7.33854696e-02  7.94125721e-02
  -7.18657672e-02 -4.54239845e-02 -5.46641350e-02  5.89731112e-02
   5.99556789e-02 -1.95045508e-02  3.63104418e-02 -4.91743386e-02
   5.07574603e-02  3.35689262e-02 -9.06975567e-03 -3.40425447e-02
  -2.00221203e-02  1.18716434e-02  6.57118335e-02 -4.19662558e-02
  -6.14687391e-02 -2.17723846e-03  7.71229938e-02  5.08949086e-02
  -1.13368779e-03  4.83490527e-03  1.32891461e-02  2.02258527e-02
   3.25088650e-02 -7.25402087e-02 -6.86763972e-02 -3.75660211e-02
   7.83221647e-02 -2.65766047e-02  1.93424225e-02 -4.38556075e-03
   2.40608901e-02 -7.15381652e-03 -2.35018954e-02  5.31418845e-02
   5.37282899e-02  6.78600147e-02 -6.22096062e-02 -1.65310204e-02
  -6.28285334e-02 -6.00829720e-03 -2.73913667e-02  2.08449289e-02
   3.62192839e-03 -5.70186488e-02  1.83451250e-02 -6.22459501e-03
   4.34597358e-02 -1.38645917e-02  6.15667477e-02 -5.35533577e-02]
 [-3.53056379e-02 -1.89036839e-02 -3.60420868e-02 -4.00311463e-02
  -3.19955405e-03  4.99179885e-02  1.69395395e-02 -7.84844905e-02
   1.37981698e-02 -2.24989988e-02 -4.65742350e-02  7.81899393e-02
  -1.07524237e-02 -6.45820517e-03 -7.58491307e-02  3.09704207e-02
   1.07638510e-02 -5.33324620e-03  9.67120472e-03  1.72185153e-02
  -1.34207541e-02 -1.24978963e-02 -2.70223618e-03  7.12297708e-02
   2.41579507e-02  5.62355779e-02 -5.86924106e-02  5.19268550e-02
  -6.99978173e-02 -2.56962441e-02 -1.25126196e-02 -7.39100352e-02
  -1.97763890e-02  5.54276258e-02  6.22947551e-02  4.03699791e-03
   2.56318171e-02 -2.67034844e-02 -4.84981723e-02 -3.04185990e-02
   7.68507943e-02  1.64193362e-02 -3.97362653e-03 -2.27824748e-02
  -1.53730363e-02  4.60537821e-02 -6.93448260e-02  2.69794762e-02
  -7.63996765e-02 -4.70085442e-02 -6.29960448e-02  2.70847976e-03
   5.56771159e-02 -9.21466202e-03  6.66647106e-02  5.89023270e-02
  -2.37823348e-03 -2.59424690e-02  1.08608436e-02 -5.71321957e-02
   7.03402013e-02  7.55470023e-02  3.59393433e-02  3.93336788e-02
   4.98922020e-02  3.14780809e-02 -8.79281387e-02 -1.79924518e-02
  -6.49791732e-02 -4.32911515e-02  6.29033670e-02 -8.79040062e-02
  -3.68554555e-02 -2.30527632e-02 -6.39527366e-02 -1.86310876e-02
  -6.01703450e-02  7.46913478e-02  1.10421693e-02 -1.77729856e-02
  -1.44470623e-02 -2.36948952e-02  5.77620640e-02 -4.87904027e-02
   3.83246839e-02 -5.04305363e-02 -6.15882315e-02 -6.25685453e-02
  -1.49265938e-02 -2.23914366e-02  5.92157356e-02 -4.68386486e-02
   2.29612887e-02 -7.96428174e-02 -7.18106329e-02  2.40348838e-02
   5.67516461e-02  5.27531281e-02 -6.89618289e-02 -2.02698000e-02
  -5.83841205e-02  2.20474526e-02 -5.16410507e-02 -4.89736907e-02
   5.72149530e-02 -6.40101731e-03  6.51802644e-02 -4.42586578e-02
  -6.88323602e-02  2.87518706e-02 -1.48513317e-02  2.42166519e-02
   5.43665439e-02 -3.35869528e-02 -7.84357414e-02  2.86942068e-02
   3.41525152e-02 -5.77004366e-02  7.93649033e-02  2.19632918e-03
   1.38139529e-02 -3.43783796e-02  2.14967411e-02 -3.29428837e-02
   1.86322313e-02  6.84953108e-02  3.13898139e-02  7.54232034e-02]
 [ 4.40031700e-02  1.54676139e-02  1.00562479e-02  3.35535258e-02
  -8.78920662e-04 -6.27636686e-02 -4.71215658e-02  7.70818815e-02
   3.13988626e-02 -5.45865409e-02  1.49347363e-02  2.77499277e-02
   1.83553789e-02  3.79142771e-03 -5.70436791e-02 -3.98742929e-02
   8.14131722e-02  8.61918926e-02  5.52334636e-02  2.43606307e-02
   1.31480657e-02 -7.99724646e-03 -5.95191680e-03  3.43893841e-02
  -2.14615464e-02 -2.87330933e-02 -2.41736006e-02 -9.94456559e-02
  -7.77408034e-02 -3.07528879e-02  4.80575189e-02  1.24020213e-02
  -4.97152694e-02  1.41722392e-02 -2.49794237e-02 -6.75395057e-02
   9.64159146e-02 -2.89174095e-02  2.05190778e-02  1.87192801e-02
  -6.73458576e-02 -1.47229861e-02  1.58252995e-02 -4.83355001e-02
  -1.09644309e-02  2.78448872e-02  1.20680211e-02 -7.73534179e-02
   5.65482676e-02  3.65543701e-02 -3.03714536e-02  1.11020533e-02
   2.84070615e-02  2.07816400e-02 -1.56137627e-02 -1.97807178e-02
  -4.90599452e-03 -4.73017208e-02  2.90864725e-02  8.62891227e-02
   7.21431598e-02  8.74532014e-03 -4.51541580e-02 -3.52777764e-02
  -5.50138317e-02  2.42753364e-02 -3.41718569e-02  1.22902617e-02
   7.65528455e-02 -9.66853201e-02  6.14333004e-02 -3.03144604e-02
  -1.25018824e-02 -5.63785285e-02  9.23695639e-02  5.19089960e-02
   4.05002059e-03  6.29160032e-02  4.69989218e-02  7.89436102e-02
  -4.34382297e-02  3.54195759e-02 -7.65234903e-02 -1.96299199e-02
  -6.17077984e-02  4.58623394e-02 -1.20485350e-02 -2.11207233e-02
   1.17741907e-02  3.54573205e-02  1.26467710e-02 -4.49530035e-02
  -4.01159488e-02  4.29759696e-02  6.20860681e-02  7.97905847e-02
   4.35047597e-03  5.41277081e-02 -3.66217978e-02 -8.19359869e-02
  -4.78268266e-02 -3.37281786e-02 -5.35750128e-02 -3.97294760e-02
   1.23547278e-02  2.88971066e-02 -9.04760044e-03 -2.40408834e-02
  -5.18730469e-02 -4.29090820e-02  7.88284838e-03  3.85684930e-02
  -5.67348078e-02 -2.64622979e-02 -3.29332501e-02 -3.68326306e-02
  -4.55512144e-02  3.57880555e-02 -5.52413128e-02  9.14297774e-02
   5.26540652e-02  9.00050253e-02 -8.43514428e-02 -2.70101544e-03
   4.01061177e-02  7.82490987e-03  6.08232506e-02  5.55028766e-02]
 [ 1.45812586e-01  1.12958521e-01  1.82939111e-03 -9.12405178e-02
   4.81214840e-03 -8.01685080e-02  3.46682332e-02 -6.55361861e-02
   7.75850937e-02 -5.88803831e-03 -2.67850868e-02 -7.71028474e-02
  -4.04085778e-02  8.03274512e-02 -1.21572629e-01  4.07932699e-02
   8.59351531e-02  1.59191899e-02  1.14317074e-01  1.37773007e-02
   2.74480283e-02 -6.06707111e-02  2.14189831e-02 -5.93860373e-02
   1.55719340e-01  2.74014343e-02 -6.43898174e-02 -4.54278179e-02
  -2.20784787e-02 -5.88690788e-02 -4.96210791e-02 -2.90242583e-03
  -4.63711884e-04 -1.08206101e-01 -1.28215812e-02 -1.26945257e-01
   1.06079482e-01 -4.86361757e-02  1.59955267e-02 -1.47925124e-01
  -5.66920824e-02  1.21313054e-02 -1.00088850e-01 -6.65460341e-03
   7.00441673e-02  6.16008937e-02 -9.29928645e-02  1.07818954e-01
  -5.61660118e-02 -1.15927204e-01 -1.64359197e-01 -7.09279766e-03
  -1.54857650e-01  1.06542401e-01  1.08076900e-01 -2.47411299e-02
  -1.57661676e-01 -1.55149894e-02 -2.03496553e-02  7.73405358e-02
   1.81314629e-02 -2.96165794e-03 -1.98384542e-02 -3.87493707e-02
   5.33749610e-02  3.64349969e-02  1.07298708e-02 -8.10234249e-03
   3.25070065e-03 -3.75334620e-02 -6.18219078e-02 -9.65928808e-02
   3.67190875e-02  2.61214022e-02  1.15267152e-03  1.39678285e-01
   1.64679751e-01  5.71489260e-02 -4.87439893e-02 -2.87799332e-02
  -1.47786438e-01  3.78531590e-02 -2.79095508e-02  1.44048199e-01
   9.82785039e-03  5.31795546e-02  2.16922928e-02 -1.39500961e-01
  -1.39001563e-01 -2.63254140e-02  5.15001118e-02  8.54661539e-02
   8.74275789e-02  2.53204182e-02 -8.22796673e-03  4.49839160e-02
   4.88113239e-02 -8.62710178e-04  4.80165221e-02 -4.01998125e-02
   1.17905866e-02  5.21140546e-02 -3.82796936e-02 -1.32904783e-01
   1.66549847e-01 -7.66883492e-02  4.09338176e-02  9.12221372e-02
   1.34105310e-01  1.40049234e-01 -2.39595361e-02 -1.22099258e-01
  -4.57143299e-02 -2.91036181e-02 -1.00631990e-01 -1.54401377e-01
   3.78341437e-03 -1.20247394e-01  1.17319323e-01 -6.83414564e-02
   7.88469147e-03  3.01674753e-02 -1.30073139e-02  4.21868861e-02
   2.63728444e-02  6.94260672e-02  6.61271019e-03 -7.29847252e-02]
 [ 2.05020472e-01  4.69048582e-02  1.38013259e-01 -2.68597230e-02
   3.42172310e-02  5.73824383e-02  1.13552518e-01  1.54988642e-03
  -7.37457164e-03  1.61386266e-01 -1.15250520e-01 -6.28268421e-02
  -7.76500925e-02  1.27176508e-01 -9.06872004e-02  8.54668394e-02
   1.04920208e-01  5.91076538e-02  1.64306223e-01 -5.22060171e-02
   1.18515842e-01 -1.55100852e-01  1.82223991e-02  6.65622801e-02
   1.75196081e-01  1.11633889e-01 -1.55131519e-01 -7.50389993e-02
  -7.64717385e-02 -5.65552637e-02 -1.14470258e-01 -4.75164875e-02
  -9.93646495e-03 -1.60650998e-01 -4.40683030e-02 -1.07051410e-01
   2.04110086e-01 -3.66499834e-02  1.84164252e-02 -1.38324216e-01
  -2.02680659e-02 -5.04089259e-02 -5.73894009e-03 -1.85412951e-02
   5.87194003e-02  5.05134612e-02 -1.08091034e-01  1.20336413e-01
   2.36129947e-02 -1.09278359e-01 -1.57442644e-01 -6.20998889e-02
  -1.49290562e-01  1.90975964e-01  1.38170213e-01  1.00460649e-01
  -1.64749622e-01  7.08041638e-02 -9.72425938e-02  3.22980285e-02
  -3.00025772e-02 -4.26881574e-02  5.47737107e-02  1.51800755e-02
   4.35531661e-02  9.76978391e-02 -1.45745799e-01 -7.08412752e-02
   1.82613373e-01 -1.45937413e-01 -3.63728888e-02 -1.29489049e-01
   9.54236016e-02  2.74023190e-02  4.65655141e-02  1.26604915e-01
   1.33280233e-01  7.45504573e-02  2.71348413e-02  8.43290612e-03
  -1.40437439e-01  4.65771668e-02  7.48283938e-02  1.44588962e-01
   4.47424836e-02  2.87922546e-02  2.23569330e-02 -1.04936197e-01
  -1.55958578e-01 -8.89255255e-02  5.96199036e-02  6.90483823e-02
   9.46634263e-02  2.69359946e-02 -1.74750183e-02  5.41975312e-02
  -5.43218106e-02  6.09875172e-02 -2.45430060e-02 -1.04992382e-01
   1.43944442e-01  1.59370482e-01 -7.90241435e-02 -8.66533443e-02
   1.10987604e-01  2.23979503e-02 -1.11769348e-01 -3.22555043e-02
   1.00289479e-01  1.22457594e-01 -4.26886454e-02 -1.74176753e-01
   6.15415303e-03  1.46075729e-02 -5.31840175e-02 -5.72545715e-02
   1.45197719e-01 -1.11929312e-01  6.46343604e-02  7.11540803e-02
  -1.08933464e-01  1.88664660e-01 -6.13376051e-02 -6.06125444e-02
   1.34883374e-01  5.79399876e-02 -8.51316452e-02 -9.78250653e-02]
 [-1.72661338e-02 -4.69193235e-02  8.92006010e-02  6.12684377e-02
   8.10739771e-02  6.53830171e-02  5.17879426e-02 -8.79844204e-02
  -4.98114992e-03  9.63880420e-02  5.27528636e-02  3.69816758e-02
  -9.15570930e-02  7.75606483e-02  3.10282107e-03  3.78777534e-02
   5.18100485e-02  1.42016396e-01  5.50374016e-02  6.74553588e-03
   6.15570955e-02 -4.64536548e-02  8.40886831e-02  6.16327394e-03
   2.69686356e-02  5.10370359e-02  1.01736085e-02 -1.45774797e-01
   6.43390790e-02 -4.76177149e-02 -9.92091671e-02  1.99347176e-02
  -6.05040565e-02 -1.30345881e-01 -7.33949021e-02  2.73624272e-03
   1.19081810e-01  1.44585809e-02 -6.46919608e-02 -4.76431586e-02
   4.63139415e-02  5.77512383e-02  3.31229717e-02 -1.07482143e-01
   3.30543853e-02 -4.08816859e-02 -4.15487923e-02  1.21625066e-01
   2.89357547e-02 -1.57700673e-01 -1.18658803e-01 -6.50012270e-02
  -7.34363776e-03  9.21624824e-02  1.75683871e-02  7.55406618e-02
  -1.16318330e-01  2.26058755e-02 -3.67416330e-02  4.74482961e-02
   2.66450047e-02  4.97996584e-02  5.08190580e-02 -1.69121772e-02
  -6.26769811e-02  5.48098721e-02  3.08607928e-02  5.31669855e-02
   6.61677346e-02 -3.03208102e-02 -5.97988777e-02 -7.12058619e-02
  -4.70307507e-02 -5.85700274e-02 -9.84089263e-03 -1.25231761e-02
   2.31932662e-02 -7.18348473e-02 -4.23187912e-02  7.47739598e-02
  -1.54370859e-01  4.97330055e-02  9.20525640e-02  6.99696913e-02
  -4.82853688e-02 -5.41332178e-02 -4.06171717e-02 -8.56914297e-02
  -1.02457307e-01 -6.10841811e-02  1.54195772e-02  1.48185134e-01
   2.73156166e-02  5.63536659e-02  2.99019516e-02  7.11776912e-02
  -4.75031286e-02  3.49232629e-02 -3.99004407e-02 -7.43421689e-02
   9.74011794e-02  1.29963204e-01  2.50297710e-02 -6.72465712e-02
   9.95248929e-02 -5.50238118e-02  4.98386137e-02 -2.41811108e-02
   1.23578399e-01  4.35655825e-02 -3.78129929e-02 -9.12225619e-02
  -3.59304398e-02  1.91315450e-02 -4.81740274e-02 -6.58335164e-02
   2.94632558e-02 -5.56313572e-03  1.52571455e-01 -9.40032154e-02
   2.75432412e-02  8.18318781e-03 -5.08078299e-02 -5.69699965e-02
  -5.36630340e-02  2.60545202e-02  1.95816047e-02 -7.29286522e-02]
 [ 1.39163002e-01  3.99742387e-02  6.93955198e-02 -1.43072652e-02
   1.62799701e-01 -2.29802374e-02  1.34799704e-01  5.75935021e-02
  -2.79370020e-03  2.76281144e-02  2.47289278e-02  4.78040203e-02
  -5.22719398e-02 -3.28029543e-02 -2.31699273e-02  1.74351007e-01
   1.66341700e-02  8.60683471e-02  8.24620053e-02  4.39060889e-02
  -2.07155477e-02 -2.04750076e-02  1.05768062e-01  1.00885943e-01
   1.16394557e-01  4.23014574e-02 -2.09168732e-01 -1.85107142e-01
   1.27143748e-02 -9.09066126e-02 -2.23121643e-02 -2.08882019e-02
  -2.84936596e-02 -1.41187936e-01 -6.79377615e-02 -9.46738273e-02
   1.80458099e-01  6.73555210e-02 -5.42005077e-02 -1.12640761e-01
  -5.79231009e-02  2.76576933e-02  1.78155489e-02  4.87502441e-02
  -8.13877359e-02 -6.19559921e-02 -9.26332548e-02  1.23830520e-01
  -8.15716088e-02 -1.36321604e-01 -1.02054089e-01 -8.77499059e-02
   8.13821331e-02  9.48358253e-02  1.62834823e-01  4.33767140e-02
  -1.57493427e-01  7.16018155e-02  1.18934363e-01 -8.88366848e-02
   1.95385423e-02  6.41713217e-02  2.04256903e-02  8.76086950e-03
  -1.18828695e-02  1.06555119e-01 -1.13021001e-01  3.58540826e-02
   9.71245170e-02 -1.32943362e-01  9.41439644e-02 -9.97739807e-02
  -1.13863749e-02  1.30887209e-02  1.39915347e-01  5.09542897e-02
   2.59565562e-01 -5.55121340e-02 -5.23276851e-02 -2.08851509e-02
  -2.14878052e-01 -2.44824886e-02  8.40699021e-03  7.11323321e-02
  -1.95661671e-02 -7.71070551e-03 -1.15194976e-01 -2.55370289e-02
  -7.60808289e-02 -6.29961491e-02  7.37876892e-02  1.37671158e-01
   5.68736484e-03 -1.75010059e-02  3.27613130e-02  1.47671178e-01
   2.12641079e-02  9.15472582e-02  1.26601160e-02 -2.17223942e-01
   1.58124119e-01  1.01988748e-01 -3.19542214e-02 -1.21423230e-01
   8.06558430e-02 -5.78902476e-02  5.13234809e-02 -8.50054435e-03
   8.83184075e-02  1.97509080e-01 -5.63388392e-02 -1.45157322e-01
   3.87855759e-03 -1.27668753e-01 -4.58635949e-02 -8.05255547e-02
  -1.10054156e-02 -1.54640198e-01 -4.65727551e-03 -1.76058397e-01
   1.44354664e-02  1.25242099e-01 -1.57926843e-01  1.55416867e-02
   1.01144902e-01 -9.23207700e-02  1.33052751e-01  5.07298037e-02]
 [ 7.46333301e-02  6.45559980e-03  4.48227897e-02 -4.43038382e-02
   1.59076095e-01 -1.73061430e-01  2.66873091e-02  8.64304509e-03
   1.66019890e-02  8.28847960e-02  7.20478967e-02  5.69326840e-02
  -3.20579521e-02 -4.72446047e-02 -6.19287044e-02  1.54568806e-01
   8.98506194e-02 -1.20695187e-02  5.57764545e-02 -4.10393737e-02
   9.24821347e-02 -5.03250770e-02  7.95149207e-02  9.04252082e-02
   1.82323083e-01  5.95972091e-02 -1.14385329e-01 -2.96626557e-02
  -4.53695431e-02 -1.52111620e-01 -1.05238631e-01 -5.86861894e-02
  -3.89171019e-02 -1.85596067e-02 -9.66860056e-02 -1.16901815e-01
   3.54703180e-02  5.98610416e-02  4.46211407e-03 -1.06250152e-01
   3.83724608e-02 -7.73604512e-02  3.53736430e-02 -4.74666469e-02
  -8.02835897e-02  1.08149037e-01 -6.85560005e-03  1.06571428e-01
  -7.25115165e-02 -1.75102595e-02 -4.39061560e-02 -1.06085204e-01
   5.21985702e-02  9.59775597e-02  1.23839714e-01 -4.20633592e-02
  -3.80429476e-02  8.84483606e-02  8.31998065e-02 -3.05893254e-02
  -3.91272306e-02 -2.17023492e-02 -5.31795137e-02  7.52283186e-02
  -2.60758158e-02  9.52491239e-02 -4.32852395e-02  2.80105770e-02
   3.80110890e-02 -1.31090164e-01 -3.11399199e-04 -1.51222393e-01
   3.74845490e-02 -9.59498435e-02  1.13194138e-01  5.51610328e-02
   3.33889693e-01 -1.02434509e-01 -1.43357590e-01  8.35987777e-02
  -1.49168074e-01 -6.41330034e-02  3.04189557e-03  7.36250877e-02
  -1.43560484e-01 -4.96804230e-02  2.25888211e-02 -4.84742038e-03
  -3.86640020e-02 -1.04496852e-01  4.95090373e-02  1.99641719e-01
  -6.08820543e-02  3.39240804e-02  6.27556741e-02  8.52771103e-02
   8.85715783e-02  1.46602631e-01 -1.14502244e-01 -5.33811096e-03
   1.39005214e-01 -7.55762728e-03  4.00174558e-02 -2.09867600e-02
  -1.51599552e-02 -1.13615459e-02 -1.17580757e-01  8.88906512e-03
   2.72475705e-02  1.49073243e-01 -8.58517960e-02 -6.72165453e-02
   1.64594389e-02 -7.02144727e-02 -8.30639973e-02 -2.02161223e-01
   9.65904966e-02 -8.55249912e-02  1.03919938e-01 -3.15755829e-02
  -2.71714088e-02  7.03148916e-02 -1.87623680e-01 -6.55531557e-03
   2.64744237e-02  1.16831122e-03  1.02827080e-01  1.95038840e-02]
 [-2.21093092e-02 -8.96651763e-03  1.72410667e-01 -1.02085061e-02
   2.33505681e-01 -1.70479521e-01 -6.76709265e-02 -1.79590553e-03
  -1.01506035e-03  8.79582167e-02  1.50889933e-01 -1.15132779e-01
   2.18262300e-02  1.02265358e-01 -9.18213045e-04  8.02523345e-02
   7.76656047e-02  2.10330471e-01  1.67485774e-01  6.66612238e-02
   1.28482178e-01 -3.75005454e-02  1.14689171e-01  3.80330672e-03
   9.22452435e-02  1.19773075e-01 -1.79794636e-02 -7.87415728e-03
   5.69409728e-02  1.26154259e-01  5.15134893e-02  2.91507244e-02
   6.18531406e-02 -4.91098948e-02  9.66808498e-02  7.17198104e-02
   8.35089013e-02 -2.23444458e-02 -2.56882776e-02  9.87213477e-02
   6.44805059e-02 -7.67360702e-02  1.80006400e-02  5.41208908e-02
  -6.48262873e-02 -2.20255600e-03 -6.95067123e-02  6.89535309e-03
  -4.01963443e-02 -5.63861504e-02 -7.69254416e-02  9.68451351e-02
   9.61494818e-02  8.11023936e-02 -4.45140414e-02 -2.75007915e-02
  -8.31430629e-02  1.55328006e-01  3.63838710e-02  8.17820132e-02
   2.22786769e-01  2.11684406e-03 -2.58031469e-02 -1.03401795e-01
   3.82577255e-02 -2.65063476e-02 -1.42874541e-02  6.17818460e-02
  -2.95477472e-02 -2.40554169e-01  6.07053451e-02  1.44645244e-01
   7.05838762e-03  1.05184048e-01 -2.92963359e-05  6.11766092e-02
   3.64663154e-01 -4.84851263e-02 -3.72818634e-02  6.55428972e-03
  -1.17412165e-01 -1.52844161e-01 -6.77024573e-02 -1.13959119e-01
  -1.37272418e-01 -1.62348434e-01 -1.56238461e-02  1.41249178e-02
  -1.09304748e-01  1.02853417e-01  1.24966957e-01  5.74107133e-02
  -4.67215069e-02  9.55460444e-02 -3.04030962e-02  9.85660404e-02
   4.64441106e-02  5.27501702e-02 -7.87833259e-02 -7.51613975e-02
   2.11919472e-01  1.19077317e-01  2.00533345e-01 -3.59976329e-02
   2.03938074e-02  1.00047678e-01  6.07540607e-02 -1.24588413e-02
   6.48986250e-02  7.10501969e-02 -3.54031622e-02 -7.69378394e-02
  -8.20470750e-02 -1.93571877e-02  5.12557710e-03  2.07177982e-01
   1.86224625e-01 -2.84174848e-02  7.32025579e-02  6.91339746e-02
  -9.16531608e-02  2.19390899e-01 -1.84908137e-02  2.43908782e-02
   1.63115665e-01  1.35255307e-01  1.91113904e-01  1.72344998e-01]
 [ 1.17388435e-01  1.72763914e-01  4.51500654e-01  2.39088200e-02
   4.07862037e-01 -1.91932097e-01  6.00133725e-02  1.49911061e-01
  -2.73087937e-02 -8.65551606e-02  7.79052451e-02 -6.05366193e-02
   8.02621171e-02  1.29104584e-01 -3.85850482e-02  3.51038098e-01
   1.82869453e-02  3.27168226e-01  3.05952102e-01  3.12236473e-02
   2.41829261e-01  1.05179645e-01  1.37622461e-01 -1.08831991e-02
   2.65950412e-01  4.12771612e-01 -8.27369541e-02 -1.65981159e-01
   1.81093350e-01 -1.39159933e-01 -2.06910849e-01 -1.53882548e-01
   1.98012561e-01 -3.43975425e-01 -4.70360294e-02  3.26118059e-02
   3.77114475e-01 -1.63471922e-01  2.47671962e-01 -2.04517454e-01
  -2.77094916e-02 -1.66304037e-01  1.12548821e-01 -1.00524068e-01
   1.21328514e-02 -3.65971886e-02 -1.05856225e-01  2.06786782e-01
  -1.93955004e-01 -3.13813329e-01 -1.93445519e-01 -1.08456111e-03
   1.42101318e-01  3.52876395e-01  2.22953543e-01  7.85266906e-02
  -1.47548690e-01  2.61635274e-01  1.96594313e-01  1.42912403e-01
   3.59835356e-01  6.49844185e-02 -5.40195405e-03 -5.61857224e-02
   3.18631008e-02  2.06645042e-01 -1.57786056e-01  6.31579831e-02
   6.10451922e-02 -3.18237215e-01 -2.87749302e-02 -1.63943663e-01
  -1.62703902e-01 -5.49059659e-02  1.73170529e-02  2.67027706e-01
   5.86208999e-01 -1.14553183e-01 -1.51329115e-01  2.44709328e-02
  -2.97879189e-01 -3.85546148e-01 -1.34995431e-01  3.30165867e-03
  -4.15371954e-01 -4.77801934e-02 -1.10166401e-01 -1.77690923e-01
  -2.84045696e-01  3.99667956e-02  1.50132477e-01  1.73795186e-02
   1.40646636e-01  1.67018622e-01 -2.22074315e-02  1.45588294e-01
   1.10248491e-01  1.30375862e-01 -7.50812665e-02 -3.11976314e-01
   5.43336153e-01  9.80535969e-02  1.33039176e-01 -9.94617566e-02
  -1.48487851e-01  9.04613268e-03 -3.29918228e-03  6.58428743e-02
   7.03790039e-02  4.19465423e-01 -1.35124661e-03 -2.47552842e-02
  -7.59078264e-02  7.37922092e-04 -6.10449240e-02  9.02035981e-02
   3.58858556e-01 -2.98391551e-01  1.23402178e-01 -1.57486171e-01
  -7.06979111e-02  3.75216603e-01 -3.46576750e-01  1.70484558e-01
   1.32172167e-01  1.54582947e-01  3.13540459e-01  2.89711833e-01]
 [ 9.67700928e-02  1.45845667e-01  3.77751499e-01 -3.32184546e-02
   4.00394917e-01 -1.16751336e-01  3.63169983e-02  1.59861177e-01
  -4.79724631e-03 -1.63968459e-01  3.15858275e-02 -2.40961220e-02
  -6.75888509e-02 -6.71250597e-02 -6.02120571e-02  2.82139033e-01
   3.93025465e-02  2.52187133e-01  2.94254512e-01 -1.43499784e-02
   2.90116608e-01  4.52955589e-02  8.65444392e-02  4.76937070e-02
   2.52801567e-01  3.36031646e-01 -7.58464336e-02 -2.24315688e-01
   2.44587749e-01 -1.10776551e-01 -1.72526091e-01 -7.02649876e-02
   7.47967809e-02 -3.20921391e-01 -7.29250014e-02  4.68849614e-02
   4.00748700e-01 -1.93183154e-01  2.61402220e-01 -2.16670901e-01
   2.85247304e-02 -2.07116053e-01  5.82788177e-02 -1.43170625e-01
  -6.60582855e-02 -1.99809410e-02 -1.37408394e-02  1.62239298e-01
  -4.28987592e-02 -1.40492633e-01 -2.45351255e-01 -1.04090348e-01
   4.89586331e-02  4.48433697e-01  2.19435483e-01  1.26087725e-01
  -1.26093805e-01  6.65698573e-02  2.42016464e-01  6.86785206e-02
   2.55355060e-01  1.58990379e-02 -7.41349161e-02 -3.32677253e-02
   1.96703281e-02  1.31489128e-01 -1.16699480e-01  2.70243064e-02
   1.64251804e-01 -3.43297958e-01  1.33068049e-02 -1.88068822e-01
  -8.72348715e-03 -6.52077720e-02  5.55483885e-02  5.31439558e-02
   6.59205198e-01 -4.41649333e-02 -3.13422978e-02  6.63094521e-02
  -3.18373978e-01 -1.96921661e-01 -7.13997483e-02 -3.87671404e-02
  -3.86530459e-01 -1.64203793e-01  2.74645723e-02 -5.54460362e-02
  -2.51757234e-01 -1.12159967e-01  1.78566247e-01  2.27512658e-01
  -1.12832356e-02  1.26677185e-01 -2.73555256e-02  3.30480307e-01
   7.69982338e-02  7.43426457e-02 -7.00848624e-02 -1.56819031e-01
   5.92433035e-01  3.28924544e-02  1.14563920e-01 -3.67218047e-01
   2.62191263e-03 -1.08900499e-02 -1.26579013e-02  4.68173958e-02
   1.14548154e-01  4.17205095e-01 -2.50095800e-02 -1.10772595e-01
  -1.85288087e-01 -7.08245784e-02  1.54245319e-02  5.58024598e-03
   3.27161431e-01 -1.09550685e-01  6.13452494e-02 -1.90929458e-01
  -4.79377583e-02  3.69711757e-01 -2.56614387e-01  4.50861081e-02
   8.69195387e-02  5.31835295e-02  1.73209608e-01  1.46666437e-01]
 [ 2.08876878e-01  5.00501633e-01 -1.27524748e-01 -4.61499959e-01
  -3.24506879e-01 -1.97574049e-01 -3.47233787e-02 -3.58011350e-02
   5.04163206e-01  2.81479120e-01 -5.52708842e-02 -3.14339926e-03
   3.32278192e-01 -1.93433121e-01 -1.49520654e-02  2.07012966e-01
   1.86735112e-02  4.41467375e-01  3.30030322e-01 -2.43505150e-01
   3.70194763e-01 -3.56864870e-01  3.74454036e-02 -3.99005413e-02
  -4.67056930e-02  3.93352732e-02 -2.87492834e-02 -1.70895830e-01
   5.58040738e-01 -4.09891903e-01 -4.97041903e-02  7.39673749e-02
   3.35609645e-01 -2.29844972e-01 -3.26344520e-01 -5.82013838e-02
   2.86893010e-01 -6.85735270e-02  2.22766623e-01 -2.73874938e-01
   3.57622653e-01 -1.07019916e-01 -6.48736134e-02 -2.53024518e-01
   6.85058236e-02  3.30715686e-01  4.55972925e-03 -3.85509878e-01
  -8.01981539e-02  1.30486572e-02 -1.52588010e-01 -2.97884434e-01
   1.84719712e-02  3.90810907e-01 -2.35330709e-03  1.09434262e-01
  -1.83268320e-02 -1.62069097e-01 -2.16883384e-02  5.33347540e-02
  -1.14184991e-01 -5.10820001e-03 -1.07924320e-01  2.45970756e-01
   2.55248785e-01  7.72983730e-02 -4.39648703e-02  3.70357037e-02
   4.02804464e-01 -6.71578825e-01  5.39590232e-02 -2.57913917e-01
  -6.88349083e-02 -1.62107125e-01 -1.60849646e-01 -3.01010847e-01
   6.35692418e-01  1.03246961e-02 -4.64030728e-02 -1.92917008e-02
  -3.23417842e-01  2.66617388e-01  4.35143225e-02  4.95818824e-01
  -3.02929878e-01 -3.17468718e-02 -6.45103306e-02 -7.56270736e-02
  -1.55326888e-01 -3.26034427e-01  4.00409997e-01  2.67807454e-01
   2.44496897e-01 -2.42487833e-01 -9.81712714e-02 -2.74153322e-01
   7.42669404e-02 -3.15462321e-01  7.53419613e-03  9.67378821e-03
   4.16458815e-01 -4.54851277e-02 -3.80246863e-02 -5.38759708e-01
   9.73054860e-03  2.00248305e-02  3.79878253e-01  1.32085346e-02
  -4.90891561e-03  1.68430302e-02 -1.95008162e-02 -2.10244149e-01
   3.07869136e-01 -7.57264439e-03  7.81610608e-03 -2.95894027e-01
   1.79636613e-01 -1.22460067e-01  2.39339694e-01  3.67037356e-01
   9.16918833e-03  3.33638549e-01 -1.72074363e-02  1.10009059e-01
   5.36458492e-01  2.24010140e-01  1.80064738e-01 -5.20279370e-02]
 [ 1.56148151e-01  4.95261937e-01  9.69265867e-03 -3.32573950e-01
  -5.31890104e-03 -1.23699449e-01  2.34999619e-02 -1.55278012e-01
   3.83436471e-01  3.80613923e-01  8.53685103e-03 -2.08118305e-01
   3.40941191e-01 -2.77020097e-01 -8.05091634e-02  1.41771138e-01
  -1.03700474e-01  5.38575292e-01  3.91209066e-01 -1.01254500e-01
   5.00178277e-01 -4.07550335e-01 -3.78579170e-01 -2.07339749e-01
  -1.90157183e-02  1.56920671e-01 -1.77235976e-01 -3.35457295e-01
   3.45913440e-01 -4.41230893e-01 -1.02474265e-01 -1.70611247e-01
   1.36004969e-01 -3.63899380e-01 -2.31925637e-01 -1.52917832e-01
   2.62676537e-01  5.11213345e-03  2.93214381e-01 -1.52648345e-01
   2.39009216e-01 -2.18645245e-01 -1.53490335e-01 -3.09965551e-01
   7.09767789e-02  3.67264807e-01 -1.64763376e-01 -2.84727544e-01
   1.46517009e-01 -1.69169158e-01 -3.90453815e-01 -1.48483664e-01
  -6.34951070e-02  3.14973921e-01  3.60517018e-02  1.33598670e-01
  -1.42369851e-01  1.98468387e-01 -4.99836467e-02 -3.62893268e-02
   6.01637969e-03 -6.98595047e-02  6.94920197e-02  3.10602427e-01
   2.35599324e-01  1.62416399e-01 -1.11507602e-01 -5.15279248e-02
   4.53316003e-01 -6.40922964e-01 -2.47008260e-02 -2.02092335e-01
  -8.76739025e-02  2.59910487e-02 -3.10067922e-01  3.60320285e-02
   5.24222434e-01 -1.51910642e-02 -9.23807770e-02 -1.65525526e-01
  -2.58231163e-01  2.35405356e-01 -9.36418101e-02  5.47827482e-01
  -3.24845433e-01  1.05293222e-01  2.24405173e-02  1.94348190e-02
  -3.74168366e-01 -3.60621095e-01  3.17512840e-01  3.67784083e-01
   3.60741019e-01 -9.00022909e-02  3.28103155e-02 -1.99001301e-02
  -2.19355866e-01 -2.95473486e-01 -3.02680135e-02 -4.01567817e-02
   5.10836542e-01 -1.71423107e-02  9.58526805e-02 -4.34693843e-01
  -5.35559701e-03  9.19436961e-02  4.21051383e-01 -2.12131869e-02
   4.30681221e-02  4.61308211e-02  1.27133816e-01 -1.82108298e-01
   4.42428172e-01 -1.13054752e-01 -1.21569652e-02 -1.47148982e-01
   6.69746101e-02 -2.23772347e-01  2.72523165e-01  6.78457916e-02
  -2.68169731e-01  4.29125756e-01 -6.86522946e-02  1.94638148e-01
   4.43185896e-01  3.69474769e-01  2.97072619e-01  4.11784612e-02]
 [-1.81267500e-01  9.38641578e-02  3.44748318e-01  5.10577150e-02
   2.54529595e-01  2.27887273e-01 -1.93091184e-01 -1.35089561e-01
  -1.46657839e-01  3.19339633e-01  2.09558889e-01 -4.98914942e-02
  -1.84900403e-01  4.28762250e-02  2.45926362e-02  6.52261674e-02
  -2.55069416e-02  4.17539269e-01  3.12815279e-01  3.04351360e-01
   3.57615799e-01 -2.43379951e-01 -6.57237291e-01 -1.77333280e-01
   1.06631927e-02  3.76419365e-01 -9.31191146e-02 -2.65950501e-01
  -1.62324160e-01  1.52787790e-01 -3.91131304e-02 -1.29828349e-01
  -2.28175655e-01 -2.22817943e-01 -1.92998890e-02 -3.12221330e-03
  -2.38775060e-01 -1.91819463e-02  1.22019924e-01 -1.66695919e-02
  -1.47386506e-01 -1.25731915e-01 -2.61560053e-01 -2.95431167e-01
  -7.43096173e-02 -2.40127593e-01 -9.42516029e-02  1.25587046e-01
   2.47491986e-01 -1.56131282e-01 -2.69326270e-01  2.18239442e-01
   1.38767837e-02  3.47752959e-01  1.28391802e-01  1.24885671e-01
  -7.31253251e-02  1.88935518e-01  6.45768717e-02 -3.76440063e-02
   5.66756465e-02 -8.01712126e-02  2.04087794e-01 -2.50770450e-02
   1.02069043e-01  2.49050945e-01 -2.64923740e-02  4.87650260e-02
   1.96597967e-02 -2.28333250e-01  8.57869238e-02  1.79714710e-01
  -3.56177539e-02  6.36593774e-02 -1.45914480e-01  2.90547222e-01
   9.03069600e-02 -1.38791323e-01 -1.66326333e-02 -2.46398952e-02
  -1.36840358e-01 -2.20773518e-01  5.34861647e-02  1.89590380e-02
   2.19095707e-01  1.78520739e-01 -1.59738921e-02  3.32582667e-02
  -3.33806545e-01 -1.39197260e-01 -1.99209213e-01  2.66763479e-01
   3.71351302e-01  2.29931697e-01  2.34488383e-01  4.70735312e-01
  -3.10321867e-01  2.55978912e-01 -1.77496254e-01 -3.65179181e-02
   5.36986887e-01  2.19769269e-01  2.02257499e-01 -1.33254513e-01
   1.06674448e-01  2.78719217e-01  3.50952506e-01  6.85710013e-02
   5.87806478e-02  8.44990239e-02  6.85504153e-02 -1.70190390e-02
   1.30506918e-01 -2.25286752e-01 -9.48270410e-02  2.57197291e-01
   3.45434546e-02 -1.48146495e-01  2.21184641e-01 -9.82936621e-02
  -1.53012916e-01  3.23866159e-01 -1.70455411e-01  1.64812326e-01
   1.62019193e-01  2.10405216e-02 -2.71933507e-02 -4.34164666e-02]
 [-4.92595471e-02 -2.35505402e-02  4.57800746e-01  1.91731811e-01
   3.84146810e-01  1.82179660e-01 -1.62852868e-01 -7.35452473e-02
  -3.90146583e-01  1.85577556e-01  1.89244017e-01 -2.62941290e-02
  -1.09688133e-01 -8.92265812e-02 -4.02116254e-02  1.10154584e-01
  -4.27967645e-02  2.46749282e-01  1.78773358e-01  3.40024352e-01
   2.28340283e-01 -2.32049271e-01 -5.24401069e-01 -1.21077277e-01
   1.72308639e-01  3.15360188e-01 -1.91396073e-01 -3.99880037e-02
  -3.10349196e-01  4.12850641e-02 -1.81276817e-02 -2.35172689e-01
  -2.96490729e-01 -8.35962519e-02 -9.21475515e-03  5.30623160e-02
  -2.59606391e-01 -9.43811610e-02 -2.08660409e-01  1.04514480e-01
  -2.06917495e-01 -7.82967284e-02 -2.18385994e-01 -5.24703376e-02
  -9.13454667e-02 -3.45794141e-01 -6.06570765e-03  3.55356812e-01
   1.02417752e-01 -1.18309371e-01 -2.56308556e-01  2.32601136e-01
   1.44766286e-01  1.34309471e-01  1.65923059e-01  7.34977052e-02
   1.22004384e-02  2.41958156e-01  4.52860221e-02  6.06105104e-02
   1.29242107e-01  4.87056598e-02  1.52371138e-01  2.95391027e-02
   7.76596963e-02  1.67338818e-01 -8.16110820e-02 -6.43259510e-02
  -9.51484740e-02 -1.28216103e-01  9.35265124e-02  1.91983074e-01
   1.43426396e-02  5.18229119e-02 -1.16020761e-01  2.20593005e-01
  -1.22770965e-02  1.29315974e-02 -9.89806503e-02 -7.96459913e-02
  -2.21330941e-01 -4.53010619e-01  1.20757192e-01 -1.20592251e-01
   1.23102091e-01  1.74050063e-01 -1.01369560e-01 -2.13997941e-02
  -1.85305163e-01 -2.93236494e-01 -1.58876106e-01  2.01503083e-01
   2.12355331e-01  2.36098915e-01  7.19265938e-02  4.27806735e-01
  -4.19081897e-01  3.45768362e-01 -1.65559649e-01 -8.73334110e-02
   2.45373890e-01  2.19390556e-01  1.84362009e-01 -3.40351202e-02
  -3.33903134e-02  2.20526412e-01  1.92794770e-01 -7.33374804e-02
   6.63179730e-04  1.33905485e-01  5.79244196e-02  8.95627737e-02
  -5.03811566e-03 -1.89420044e-01  3.85964848e-02  2.35086262e-01
   9.77861509e-02 -2.19909549e-01  1.15005828e-01 -2.19103873e-01
  -2.49189273e-01  2.66531706e-01 -2.40162075e-01  1.22636929e-02
  -9.49881412e-03 -9.19001251e-02 -8.36119130e-02  2.18110289e-02]
 [ 1.70534104e-01  8.00077394e-02  1.96536824e-01  1.85092032e-01
   1.12039849e-01  5.23209013e-02  3.34595814e-02  8.90396256e-03
  -1.90427333e-01 -2.94983592e-02  1.33881420e-01  9.03489068e-03
   4.93340977e-02 -6.24973215e-02 -5.45696095e-02  1.09570727e-01
  -9.85478982e-02  1.30598143e-01  8.77306312e-02  5.10066077e-02
   1.65416703e-01  3.82559896e-02 -4.08438332e-02  1.26843527e-01
   2.20544219e-01  3.00221384e-01 -1.08312070e-01 -3.12075019e-02
   1.63818017e-01 -1.37471497e-01 -7.14431256e-02 -1.16359450e-01
   3.18720490e-02 -3.63586843e-02 -1.67823657e-01  2.35699955e-02
   2.63090972e-02 -7.54388422e-02  7.45684355e-02 -1.57855630e-01
  -6.46686777e-02 -9.17841718e-02  1.49287030e-01 -2.87704114e-02
  -1.04332983e-01 -3.73377986e-02 -9.17699561e-02  1.52720898e-01
  -8.57018381e-02 -1.15659609e-01 -5.48237190e-02 -2.18882442e-01
   1.09571300e-01  3.26914974e-02  1.05272993e-01 -4.56144586e-02
  -6.42335266e-02  1.48463324e-01  3.53034958e-02  4.97973859e-02
   2.89597303e-01  7.82621577e-02  2.09414139e-02  2.23798230e-01
   6.92044795e-02  9.76397991e-02 -4.13540006e-02 -1.53972134e-02
   2.05345526e-01 -8.68896917e-02  1.91594672e-03 -1.00566156e-01
  -7.04786228e-03 -4.59913574e-02 -1.60630997e-02 -1.71834268e-02
   2.28983730e-01 -4.62966152e-02 -1.86849698e-01  2.20542163e-01
  -2.03185111e-01 -1.13580272e-01 -5.68959266e-02  4.85477336e-02
  -1.72883093e-01  1.95459928e-02 -9.98321846e-02 -4.04756218e-02
   1.44456979e-02 -1.08916275e-01  1.13069475e-01  2.59831935e-01
   3.11770681e-02  4.63953279e-02 -7.54760206e-02  2.38636583e-01
   4.38841209e-02  2.05220059e-01 -9.66420472e-02 -6.66635260e-02
   1.06316112e-01  3.31804864e-02 -1.27803132e-01  2.19442602e-02
   1.86368618e-02 -2.22321004e-02 -3.52938414e-01 -4.15444747e-02
  -2.21719407e-02  1.63218409e-01  1.84496772e-03 -6.04030602e-02
  -2.22651679e-02 -3.72128673e-02 -1.10009797e-01 -1.24423973e-01
   1.26709417e-01 -1.18361548e-01  5.18491715e-02 -2.77390838e-01
  -8.30847993e-02  2.02917412e-01 -1.43971488e-01 -4.86620329e-03
   6.06590882e-02 -2.23974381e-02  1.70729101e-01  9.88318473e-02]
 [ 2.51077950e-01  1.78474650e-01  1.87121212e-01  1.08051948e-01
   3.71090531e-01  4.48295437e-02  2.12944403e-01 -9.39827785e-02
  -6.34911433e-02  9.90301557e-03  8.16630349e-02  3.85582261e-02
  -2.32014924e-01 -1.56662121e-01  3.11715994e-02  1.86954960e-01
   1.03822902e-01  2.33322546e-01  1.11843705e-01  2.10393928e-02
   2.76397049e-01 -1.77418113e-01  1.26528203e-01  1.10007726e-01
   3.29058796e-01  3.54597062e-01 -1.76526412e-01 -1.76846534e-01
   2.91436166e-01 -3.71429741e-01 -7.81783611e-02 -5.51563427e-02
   1.18664093e-02 -1.99857041e-01 -3.37606162e-01 -5.89733310e-02
